#include <arm_math.h>

#define INPUT_SIZE 784
#define FC1_SIZE 64

#define FC2_SIZE 10

const q15_t fc1_weight[] = {
	-1439, 327, 314, 812, -189, -417, -57, -1155, -81, -633, 751, -862, 1022, 732, -565, 1660, 285, 333, 650, -630, -521, 83, -208, -620, 823, -782, -602, 658, 512, -1047, -365, 209, 868, -1521, 538, 1090, -754, 1087, -707, -502, 7, -339, -509, -799, 332, -670, 360, 1018, 2564, -525, -1517, -931, -88, -1034, -877, 163, 925, -938, 417, 537, -938, 200, 274, 1213, 149, 465, 892, 972, -852, 71, 641, -164, 688, 551, 38, 883, 831, 696, 498, -176, -72, -154, 432, 688, 1399, 707, -736, -833, 658, 222, -78, 374, 822, -536, 1204, -561, 228, -2394, 252, 921, 1089, 597, 466, 762, -1181, 800, -210, 606, 13, -80, 665, 1057, 740, -660, -112, -326, 14, 100, -618, -913, 721, 1194, 287, -563, -954, -319, -1029, -393, -145, -632, 1275, 20, -1159, 147, -582, -769, -755, 1315, 327, -799, -711, 1347, 887, 1596, 237, -254, 522, -176, 1063, 963, -827, -483, 75, -1205, 1110, -503, 280, 862, 223, -1239, 655, -1210, -302, 1178, 547, -437, 710, -630, 366, 270, 1459, 637, 2178, 704, -994, 2764, 2101, 1452, -88, -1011, 101, -868, -846, -732, 1322, -238, 915, 462, -136, 1221, 495, -582, -240, 1406, 1040, 1001, -1441, 842, 122, -764, 486, -160, 283, -484, -802, 1036, 1013, -417, -694, 667, -44, 696, 1665, -145, 241, 219, -331, -807, -219, 36, -505, -1031, 631, -2022, 675, -2364, 928, -697, 755, -24, -141, -825, 891, 930, 1276, -726, 969, 1221, 379, 1046, 1356, 865, -1391, 471, 847, -544, 933, 626, -808, -585, 420, 879, 199, -659, -425, -760, -1321, 53, -115, 974, 188, -159, -261, 882, -775, 1278, -547, -161, 626, -404, -724, 931, 354, 647, -498, -699, 1280, 1811, 784, -374, -472, -1342, -1046, 1425, 445, 808, 74, -1502, 334, -633, 123, 638, -205, 465, 44, 538, 439, -962, 702, 817, 2090, 869, 283, 2491, 1231, -401, -2129, 135, -180, -785, 1074, 505, 632, 959, 398, -512, -180, 668, 419, -904, -1163, -683, 677, 545, -450, 982, 1310, -351, 346, 25, 683, -520, -885, -888, 172, -20, 166, -199, -1116, -1039, -203, 1643, -408, -508, -300, -135, 409, 826, -776, 916, 409, -1232, 794, -730, 56, 950, 1343, -451, -612, -1178, -1137, 450, 957, 1387, 521, 864, -577, 1082, 1763, 610, -574, -259, -548, -654, -735, 1239, -908, -684, -509, 685, 39, 256, 886, -316, 288, 1007, 1386, -1182, -813, -510, -555, -383, -135, 649, -935, -643, 1051, -295, 1119, -327, -397, 90, -939, 138, -565, -453, 602, 877, -615, -356, -779, -612, 575, 23, 622, -192, -99, -1248, -777, -483, -194, 624, 88, -768, -479, -888, 1388, 932, 1751, -591, 513, 1095, 1971, 862, -1789, 707, 1673, -1238, -876, -574, 81, -813, -594, -319, 801, 381, 1037, -578, 136, -288, 801, -851, -1733, 774, 828, 46, 1210, -459, -320, 183, 452, -481, 1566, 1316, -1560, -832, -139, -356, -1, 787, 34, 153, -586, -420, 381, -588, 1116, -598, 779, 209, 1021, -2160, 556, 1306, -526, 410, 848, -303, -393, -944, 601, 1294, 196, 205, 275, 1043, 1862, 1492, -591, -628, 126, 717, 848, 542, -543, 2, 583, 1222, -798, 669, 869, -294, -1522, -600, 1442, -958, -553, 494, -649, -903, -860, -771, 931, -396, 717, 517, 625, 1298, 576, -765, 943, -530, 214, -247, 173, -585, 683, -1362, -914, 847, 529, 94, 1321, -968, 1446, -407, -34, -774, 1333, -23, 942, -72, 421, 1089, 1117, 1331, 1349, 818, -856, 2808, 2234, 568, -2319, -635, -375, -700, -883, 1220, 548, 322, 1346, 960, -862, -963, 127, 297, -12, -130, -249, -1088, -212, 1072, 47, 369, 574, 426, 566, -1049, 483, -324, 513, 1228, -504, -721, 1053, 677, 127, 478, -561, -1174, 1101, 536, -499, 1199, 563, -23, 374, -865, 10, -1734, -481, 257, 1359, -726, 620, 235, -1079, 512, 1656, 1285, 1423, 646, 955, 904, 2023, 642, -2233, -992, 186, -1326, 1422, 912, 947, -127, 239, 1121, 197, -829, -843, 742, 472, 711, -670, 419, -200, -771, 940, -144, 818, 992, 901, -9, 678, -55, 971, 1702, -871, -932, 79, 279, -162, 380, 1204, 569, 975, 602, -957, -514, 437, 710, 823, -2014, -149, -656, -538, 1357, -497, -8, 648, -1215, -20, -607, -128, -619, 58, 966, -536, 731, 1861, 877, -590, -192, 269, -938, -529, -216, 1350, 1048, 712, -132, -54, -188, -1153, 176, 109, -537, 1404, -874, -515, 1148, 280, 444, 818, 823, -292, 1092, 1266, 556, -197, 221, -974, 1354, -913, 649, 573, -260, -851, -1000, -29, 630, 1218, 266, 1235, 688, 1520, 64, 816, -1658, 1058, 668, 231, -154, -890, -1188, -15, 436, -352, -182, 509, 321, 486, 2465, 1338, 1403, -1788, 802, 1320, -967, -102, 1187, -300, -750, 602, 391, 632, -92, -916, 570, -2, -222, 1245, 417, -1110, -59, 822, -166, -334, -26, -856, 583, 349, 781, -80, 920, -1165, 378, 889, -323, 355, 1088, -480, 249, 927, -54, 1123, 1350, 262, 475, -118, -1472, 366, -1097, 180, 315, -615, -163, -941, 300, -1216, -651, 14, -786, 1248, 615, 483, 1557, 979, 1455, -585, 618, 1279, 825, 878, 391, 609, -312, 1212, 681, 945, 627, -1069, -580, 194, 451, 881, 858, 248, -434, 854, -1110, -451, -273, 162, 387, 322, 1321, -14, 192, -975, -574, 1059, -477, 774, 139, 691, -852, 590, 522, 296, 17, 826, 963, -132, -457, 1360, -804, 219, 1360, 917, 42, -296, 584, 633, 326, 825, -28, 1267, 859, -139, 1107, 1166, 1620, -1204, 564, -406, -1137, 496, -219, -12, 1120, 1227, -312, -830, -690, 285, 625, -1016, 362, -539, -184, -728, 1088, 1470, 755, 966, -328, -747, 218, 1122, 47, 133, -228, -956, 100, 321, 475, 361, 1471, 937, 492, 564, -321, -430, 68, -306, 803, -553, -771, 1296, -701, -787, 224, -842, -573, -688, 817, -1180, 933, 1047, 44, 1549, 642, -140, 1110, 371, 44, -1438, 168, 1387, 326, 300, 793, -409, 830, 137, 1029, -163, 888, -396, 33, 314, -47, -489, 1077, -1535, 564, 91, -1031, -721, 403, 604, -41, 571, -672, -545, 1098, 21, 585, -1054, 802, 1581, -293, -756, -946, -119, 661, -810, 712, 274, 1038, -297, -1968, 1450, -1323, -627, 1155, 1378, 6, 920, -1290, -969, -895, 341, -194, -45, -341, 1122, 869, 427, -252, -1609, -714, 456, 414, 1427, 583, -799, 1198, 918, 766, 449, 473, 996, -858, 38, -358, -587, -32, -1738, 62, -639, -812, 214, 126, -858, 377, -413, 972, 1161, 710, 506, 648, 211, 486, -98, -220, -511, -475, 584, -1485, -490, -695, 1293, 916, -283, -517, 572, -1766, 992, -164, 945, -341, 1231, -369, -1024, 352, 43, -317, 973, 877, -391, 2714, 1318, 412, -826, -814, -365, 366, -177, 388, 1086, -1013, 1038, 504, 225, -659, 789, 47, -194, 75, 136, -104, -362, -698, 731, 456, 864, -774, -815, 1108, 614, 387, 813, 527, 17, 1215, -1147, -308, -533, 1287, -313, 904, -968, 600, -847, 755, -78, 503, 329, -1074, 1205, -828, -435, 826, 1422, -100, 695, 891, -1117, -1179, 1089, -428, 1492, 1423, 334, 835, 2508, 1056, -444, 695, 1109, 657, 1425, 23, 276, 1236, -312, 1145, 826, 777, 790, -301, -1153, -65, -76, 236, -981, -699, -189, -395, 186, 1188, 32, -157, 638, 1204, 1416, -27, -133, 1182, 585, 57, 74, 807, -852, -741, -460, -1171, -1005, 1133, 219, -765, -139, -847, -189, -1646, 1195, 1214, -484, 499, -261, -693, -622, 482, 136, 661, 353, 1413, 612, 2775, 872, 1456, -1765, -574, 909, 483, 873, 1217, -610, 500, -197, -407, 1186, 981, -461, 865, 279, -100, 123, 1122, -1146, 43, -56, -963, 1269, -18, 63, -475, -678, -752, 537, 1084, -1228, -700, -1092, 165, 1043, 557, 672, -532, 629, 667, 476, -352, 515, 1122, -466, 56, 1974, -2699, 793, 835, 71, 638, -468, 557, 445, 139, 468, -909, 801, 403, 572, 1305, 1849, 729, -1314, -327, 1320, -475, 453, 336, -493, 1159, 213, -563, 504, 653, -756, 1243, -789, -383, -648, -602, -1124, 877, -639, -45, 837, -683, -221, -992, 1039, 1311, -624, 1102, 199, -768, 868, -947, 1628, -199, -265, -837, -110, -531, 109, -650, 998, 348, 1211, -1867, 1158, -2250, 1315, 287, 434, 1178, -282, -142, 864, -29, 1182, 214, 893, 1316, 1053, 898, 2316, 1442, -923, 697, 1018, -1249, 1033, -452, 1237, 405, 1311, -837, -631, -561, 159, 609, -1321, 1148, 1639, -1176, 382, 1020, -51, 260, 127, 931, -241, 563, 353, 125, 76, 522, 126, 1100, 497, 983, -289, 515, 983, -279, 1056, 590, 100, -874, 1347, 745, 1422, -1278, 1850, -2239, 629, 1071, 842, -831, 225, -913, -1119, 207, 1661, -894, 253, 157, -716, 2499, 1483, 378, -2314, -322, 1087, -782, -96, -579, -605, -21, 512, -559, 73, 1172, 585, -32, -642, -130, 1216, -890, -1227, -658, -103, 350, -375, 317, 1111, 666, 1113, -901, 1507, 1600, -718, -46, 108, 621, -546, 507, 721, -209, -723, -678, -167, 412, 910, 608, 76, -650, 1513, -936, -933, -261, 33, 107, 1273, -900, -587, -460, 1769, 496, 1715, 27, -784, 2305, 2243, 283, -432, 255, 1074, 103, 359, -919, -93, 1046, 5, -740, 393, 627, 611, 223, -1444, 238, 130, -195, -1895, -168, 1051, -819, -410, 1277, -621, -422, -804, 1282, 262, 99, -1530, -888, -295, -860, -65, 1661, 1271, 648, 914, 367, 336, 1046, 1341, -733, 781, -1616, 1696, -440, 428, -29, 835, 90, 945, -113, -839, 55, 504, 442, 1003, 439, 242, 2419, 2517, -355, -1906, -1022, -478, 183, 557, 412, 334, 1092, 244, 1316, 637, -200, 396, 1155, 223, 346, 1621, -929, -1778, -537, 875, 15, 996, 277, 350, 144, 16, 575, -193, 1342, -115, -657, 875, 666, 568, 232, -122, -414, -206, -466, 157, -669, 480, 492, -233, -1139, 1701, -1587, 693, 21, -629, 302, -851, -818, 394, -813, 1253, 26, 1169, -789, 572, 1301, 1699, -294, -863, 598, -39, -478, 752, 246, 424, -162, -637, -700, 93, 166, 622, 330, -601, -899, 361, 1029, -484, 1065, -73, -216, 143, -659, 135, -300, -229, 597, 1502, -139, -1309, 335, -95, -979, -85, -254, 1228, -345, -195, -1162, -210, 60, 1213, 439, 144, -1314, 1708, -2441, 256, -723, -327, -765, 254, 197, -482, 88, 125, -666, 1155, -817, 844, 2798, 1216, -385, -772, -233, -438, -329, 37, 1165, 1222, 1160, 945, 586, -311, -369, 326, 121, -1532, 1373, 572, 804, -731, -533, 584, -1010, 1055, -180, 81, 513, 256, 269, 1357, 918, -1436, 994, -405, -1019, 616, 1294, 695, -1240, -416, -262, 1165, 1113, -370, 1137, 363, -1500, 278, -1842, 72, 701, -125, -289, 1361, -610, 201, 634, -139, -771, 1552, -812, -813, 902, 1095, 1082, -121, -1178, 148, -724, -479, -359, -620, -852, 777, 570, -927, -164, -883, 386, -920, 837, 982, -587, -1788, -134, -706, -772, 1024, -350, -485, -433, 860, 112, -403, -142, -294, -56, 129, 1053, 434, 25, 243, 406, -749, -403, 1035, -766, -245, -506, 519, -637, 999, -873, 435, 1039, -363, 803, 478, -777, -874, 91, 555, 1351, 1445, 232, 701, 950, 294, 950, -1910, -543, 921, -1328, -469, 903, 587, 82, 1020, -602, -265, -218, -697, 534, -676, 1005, -239, 323, -1911, -717, 65, -58, 1210, 1102, 1108, -789, -193, -619, 509, 1003, 120, 1310, -612, 1085, 1594, 876, 43, 723, -755, -429, 542, -859, 1331, -255, 435, -1666, 332, -2287, -584, 977, -438, 950, 465, 1008, -943, -856, 1555, 564, 1971, 1215, -211, 2088, 2235, 180, -1666, 1132, 1052, 79, -296, 626, 1025, 703, 574, 607, -127, 63, -814, -120, -1622, -240, 108, 501, -206, 385, 1174, -1248, -611, -955, 150, -230, 748, 1293, 1037, 1077, -847, 4, 17, -155, 1331, -311, 370, 291, 1329, 680, -627, 1057, 1145, 337, -23, -359, 755, -2505, 526, 780, 101, 299, -353, 284, 103, 832, 1398, 800, 2073, 1399, -468, 1586, 860, -78, -849, 975, 1714, 530, 272, -318, -570, 522, -951, -225, 1032, -538, -378, 447, -877, 797, 679, -98, -402, 1172, 1109, -1235, 1188, 1098, 755, -490, 160, 1280, -98, 787, -84, 69, 167, 930, 580, 247, 1153, 385, 392, -1124, 427, 524, -110, 768, 1117, -1520, 1667, -1854, 812, -615, 390, 259, -300, 924, 128, 314, 695, 277, 1311, -472, -476, 2280, 1367, 187, -433, -663, -296, 223, 971, -507, 889, 1252, 306, 354, 24, 147, -527, -924, -334, 532, 1563, 317, 120, -229, -353, 702, 543, -853, 337, 988, 1144, 43, -555, -493, -327, -168, -511, -932, 970, 1212, -213, 779, 1202, -978, 840, 423, -50, 967, 132, -296, 87, -1583, -842, 55, -883, 531, 1334, -1202, -757, -836, 909, 598, 2193, -720, -377, 1924, 2400, 929, -1998, 400, -275, -422, 1292, -5, -29, 272, -933, 711, -889, 1252, -987, -116, -1534, -184, -634, -372, -1086, -137, -469, 869, 540, -225, -897, -812, -104, -955, -276, 403, -194, -866, 992, 425, 918, 887, 180, -1272, -577, 410, -605, 793, 1107, -109, -649, -1475, 1388, -2100, 476, 972, 349, -134, -622, 363, 751, 835, 1571, 1330, 1867, -61, 1058, 1458, 2150, 872, -345, -385, 686, -1506, -794, 737, -551, -914, -484, -164, 673, -467, -828, 354, -812, 558, 1075, 775, -1892, -419, -732, -743, -789, 952, 1199, 551, -165, -337, 584, 1162, -123, 289, 145, 720, 1062, 809, 436, -174, 588, -81, -223, 68, 57, 854, 385, -847, 330, -2338, 1239, -173, 147, -365, 1240, 712, -828, -934, 1051, -768, 43, 998, 1085, 760, 2220, 500, -2178, -1182, 900, -263, -582, -816, -697, 1213, -869, 567, -8, -543, 18, 640, -1765, -688, 188, -73, -522, 375, 84, -671, -391, 914, 608, 206, -65, 926, -324, 1162, -1386, -642, -104, 950, -160, 1867, 744, -886, 1319, -1467, 300, 882, -502, 128, 1422, -2056, 187, -976, 65, -606, 952, 1181, 172, -1183, 709, -491, 1108, -887, 577, 566, 80, 1212, 2593, -429, -663, -924, 1163, -90, 824, 46, -943, -762, 1253, 1017, -682, 1223, -783, 744, -1983, 715, 547, -88, -1898, -395, -40, 240, -34, 1190, 199, -845, -822, 1028, 1463, -156, 281, 1083, 766, -918, 19, 1057, 1321, -800, 1297, 476, -817, 639, 899, 80, -253, -1041, 181, -2360, 148, 133, -589, -297, 40, -850, 109, -867, 305, -646, 554, 49, -15, 2057, 1871, -213, -487, -950, 1039, 326, 403, 694, -768, -1240, 396, -510, 554, -650, -969, 1037, -147, 93, 1569, -205, -294, 96, 304, 942, -601, -432, 1053, -741, 316, -127, 127, -24, -266, 360, 1027, -986, 1231, 1957, 1343, 510, 842, 410, -393, -699, -455, 1173, 527, -1142, 1369, -919, -667, -551, 890, -387, -245, 661, 532, 512, 1957, 435, 990, 540, 930, 2620, 1985, 1273, -941, -494, 490, -885, 293, 140, -468, -766, -741, 1311, -419, 702, 298, 381, 203, 364, 1395, -907, 294, 386, 1137, 278, 287, -711, -462, 916, -26, 990, 780, -531, 91, -879, -979, -962, 710, -232, 1074, -1008, 114, -702, 1041, -203, 1270, 59, 431, -2146, 897, -1627, 1330, -874, -352, -207, 1006, 737, 17, 919, -277, -930, 1557, -156, -433, 2614, 1028, 450, -1967, -436, 1312, -2, 1306, 801, -428, -485, 1190, 388, 1078, 361, -494, 1006, -801, -522, -232, -307, -221, 288, 303, 535, -426, 597, -353, 1003, 1025, -300, -552, 1195, -668, 283, -984, 473, -72, 1059, -775, -1363, 1128, -97, 1291, 932, 1257, 292, -527, -1069, -129, -2531, -696, 325, 122, 898, -522, -543, 232, -1127, 1379, -919, 782, 1380, 615, 1496, 2012, 1373, -158, 235, -193, 389, -543, 1012, -548, 89, 911, 510, -468, -153, 900, -393, -1929, -68, 1007, -298, -1320, -668, 1210, -678, 14, -666, 212, -539, 1100, 711, 436, -504, -220, -794, 110, -15, 96, 1055, 1087, -1677, 918, -278, 1128, -735, -290, -713, 1504, -1854, 668, -1581, -531, -103, 668, -769, -873, 76, 355, -1296, 997, -661, 203, 137, 1172, 1489, 1165, 1055, -1841, -1143, 777, -868, 514, 584, 587, -225, 215, 1336, 509, 722, -150, 103, -1583, 1004, 1899, 793, -431, 239, 1509, 1558, 1748, -53, 553, -1344, 1141, 1295, -81, 1321, -1153, -159, 165, 1200, -50, 2527, 251, -1259, -573, -199, -379, 1316, 643, -652, -29, -1985, 278, -1488, 735, -714, 123, 1079, -736, 1231, 144, -360, 920, 215, 2134, 1016, -208, 1487, 2410, 240, -106, -1265, -124, 1157, -146, -497, 805, -460, -929, 214, 340, 66, 457, 33, -302, -209, 259, 307, -807, 1180, -142, 20, -716, -906, 563, 129, 784, 997, -695, -269, -1364, -75, 833, 685, 533, 759, -721, 514, -892, 778, 322, 334, 48, 542, -535, -1924, 781, -2308, 1005, 27, -293, 1316, 1082, -162, 895, 731, 1850, -792, 409, -134, -197, 749, 2080, 530, -1152, -254, -679, -667, -596, 1048, 1164, -672, -185, -123, 639, -781, 937, -892, -3, 1483, -640, 244, -1017, 158, 1252, 122, 917, -639, 1119, 306, 1221, 985, 1063, -638, -1251, 874, -402, -490, 1216, 453, -111, -65, 702, 297, -984, -409, -135, 631, -241, -1151, 882, -2268, 77, 263, 590, -525, 1201, -979, -1140, 937, 923, 785, 534, 359, 801, 1065, 1300, 391, -1445, -521, -92, -798, -890, 368, 285, 780, 665, 1094, -164, -861, -554, -446, -1368, 1081, -1049, 235, -1040, 909, -32, 637, -499, -720, -655, 138, -133, 1062, -689, 447, -938, 183, -297, -160, -639, 484, 1282, -1238, -532, -295, 931, 189, -235, 1146, 425, 199, 769, -973, -296, 169, 374, -622, 194, 423, 429, 80, 1411, 313, 1855, -586, 1282, 967, 444, -245, -100, 378, 577, 345, 1001, -678, 974, -1127, 754, -534, -693, 538, -129, 235, 193, 215, 710, -882, -1107, -47, 672, 648, -703, 952, -157, -107, 479, -232, 530, 1799, -1415, 952, 626, 12, 455, 1173, 158, -740, 36, -389, 102, 926, 571, 855, 784, 711, -2, -2556, -244, 231, 1363, -421, 436, -18, -107, -487, -80, -439, 942, -589, 257, 217, 1290, -1122, -1684, 207, -666, -100, -764, -277, -229, -1519, 943, -555, 951, 880, 1189, -363, 111, 952, 1370, 926, -1860, 689, 175, 1151, 871, 251, 290, 928, 80, -786, -622, 1443, 497, 792, 197, -1006, 26, 77, 913, 357, 31, -1364, 3, -539, 794, 747, -243, -1892, 225, -2032, -955, 1184, -622, 485, 984, -1212, -1202, 6, 1480, -530, 689, 216, 1091, 1999, 2171, 519, -546, -348, 599, -291, -733, 984, 527, -391, -446, 1127, 1242, 86, 719, 475, -851, 193, 1185, 455, -31, 890, -488, -392, 983, 936, -460, -39, -253, 1329, -637, 1444, -160, 884, 236, -74, 786, 249, 906, 355, 585, -757, 1378, 637, 1311, 634, 793, -1149, -350, -1512, -910, -557, -195, -931, -132, 578, 804, 811, 1741, 1306, 1461, -564, -264, 1941, 1379, 850, -1697, 331, 1390, -530, 467, 875, -316, -160, 1349, -909, 212, 139, -490, 1090, -1597, 536, -199, 233, 98, -117, 1022, -1122, 1081, -812, 484, 1024, 277, 199, -778, -19, -252, 989, 389, 254, 1134, 2140, 488, -1315, 460, -1096, 925, -500, 640, 35, 957, -1116, 351, -398, -57, -663, 126, -367, -391, -1110, 751, 21, 620, 373, 747, 777, 247, 1418, 1876, 436, -1989, -518, -132, 715, 739, -83, 605, 629, -666, 1073, 463, 58, 639, 463, -434, -384, 1261, 909, -536, -391, -659, 450, -310, 536, -83, 1153, 112, 201, -81, 1085, -738, 592, -552, 796, 818, 879, -755, 317, -307, 15, -320, -171, 547, -721, 423, 35, 778, -2474, -881, -73, 200, 226, 525, -550, -30, -1200, 1042, 1163, 740, 873, 1034, 2577, 1835, -619, -997, -721, -112, 1036, -38, -680, -543, 355, 56, 590, -294, -323, 113, -39, 455, -612, 1170, 215, -1353, -730, 1275, -849, 1505, -608, 620, 154, -245, -608, 1026, 1603, 8, 1007, 951, 1022, 315, -203, -129, -1525, 908, -601, -409, 437, 402, -1088, 682, -2134, 1515, -1684, -840, 1022, 404, -377, -612, 996, -767, -351, -148, -708, 244, -117, 166, 951, 456, 821, -611, 334, 1088, -180, 536, 1348, 299, -1040, 535, 1267, 1304, -328, -82, 164, -1330, 296, -103, 575, -1598, 63, 1436, -111, 764, 782, 1027, 1127, 1267, 349, 858, -288, 323, -551, 343, -246, -272, 1694, -234, -701, 132, 640, 331, 1014, -890, -907, -663, -2002, 1117, -1568, 894, -838, 794, 1347, -707, 6, 593, 1038, 9, -57, 46, 516, 141, 866, 2446, -484, -45, 951, 1620, -789, 965, -959, 1349, 181, 341, 167, 920, 129, -727, 836, -1712, 998, 370, -811, -1590, 1022, 104, -386, 457, -291, 289, -207, 1123, 564, -6, 1084, -345, 810, 866, 750, 564, 1635, -529, 641, 865, -769, -743, -494, 1108, 571, 1053, -908, 1005, -1523, -421, 108, 124, -374, 888, -770, 232, 583, -44, -654, 772, 1426, -743, 2831, 1746, -408, -9, -943, 71, -1469, 182, -570, 1301, -935, 223, 541, 312, 1202, 668, 1223, -582, 1373, -425, 389, -374, -100, 276, 68, 1227, 1050, 442, -232, 876, -171, 1110, -306, 347, 1111, -301, 196, 430, 757, -923, 720, 828, -840, -874, -618, -177, 746, 1358, -1201, 1318, -506, -649, 1134, 856, 1089, 42, 152, -10, 977, -315, 56, 1620, -106, 488, 2592, 2170, 707, -1032, -1053, 1006, -1539, 814, 384, -813, 317, 195, -162, 675, 940, 163, 1142, -509, 336, 108, -982, -654, 1332, -303, -732, -525, 573, -339, 911, -796, -121, 460, 589, 15, -523, 815, -898, 792, -76, -876, -445, 1294, 403, -827, 338, -626, -811, 1383, -579, 1652, -2508, 1261, -734, 163, 1305, 961, -1186, -511, -93, 958, -3, 1333, -794, -502, 833, 807, 1100, -2107, 898, 1139, 298, 716, 57, 633, -76, -546, -133, -736, 1287, 440, 456, 467, 123, 445, 994, -1048, 1282, 254, 294, 646, 236, 1331, -225, 311, 523, 456, 930, -1083, -732, -201, 510, -427, 612, 425, -481, -122, 349, -193, -379, -634, 628, 251, -1736, 211, -2451, 243, 1073, 950, 495, 1038, 72, -826, -785, 596, 353, 2020, 1265, 1245, 2063, 1716, 359, -1344, -1122, 1167, -504, -463, 803, 1289, -948, 902, 427, 251, -1, 690, 1032, -861, -874, 2, 831, 88, -212, 1064, -1345, -128, -865, 1124, -925, -768, 813, 269, -467, -1175, 667, -752, 66, 767, -377, 1027, -539, -1, -1608, -1029, 34, -455, 334, 290, 40, 1488, -1785, -827, -749, -543, 213, -36, 927, -87, 691, -300, -605, 2143, 177, 878, 2810, 1954, -454, -522, -635, -166, -1472, 1086, 855, 1272, -497, 1239, 1162, -76, 108, -1037, -163, -765, 808, 62, 968, -1267, -33, 1179, 315, 875, 1040, -761, 1104, -286, 559, 856, 1178, -1291, -755, 305, 164, -67, 527, 27, 215, 1101, -1273, -353, -96, 104, -728, -271, -1891, 887, -1435, 120, 361, -301, 1264, -474, 354, 158, -1164, 551, 1356, 572, 1366, 471, 916, 273, 309, -1366, 1045, 1659, -798, -197, 30, 771, 1302, 544, 518, 59, -291, 543, -418, -1313, 839, -163, 453, -142, -371, 554, 671, -804, -850, -279, 1214, 1073, -806, 1482, 1684, -126, -119, -684, 1006, 455, 1356, -138, -858, 770, -462, -707, -832, 246, -1095, -379, -1492, 1698, -1064, 169, 296, 1273, 519, -314, -282, 25, -1004, 958, 1129, 186, 446, 224, 983, 315, 803, -2198, 523, 684, -295, -788, 1353, -201, 1145, 211, 1159, 1302, -255, 881, 1333, -1485, 679, 664, -1087, -416, -447, 522, -279, -500, 488, -401, 921, -691, -551, 635, -234, -543, -525, 1022, 196, 1226, 1564, -564, -433, -219, 392, -429, 1369, 1243, -405, 1255, -1809, -112, -2088, -569, 1392, 985, -542, 1366, 844, -938, -974, 117, 1106, -38, -261, -770, 1028, 852, 652, -830, -606, 57, 286, 451, 1078, 132, -609, -840, -330, -662, 847, 672, 1220, -562, 840, 1624, -815, 185, 1174, 62, 737, 909, 1363, 768, 340, 383, 160, 940, -370, -1001, 683, -707, 268, 1452, 1681, 899, 773, 200, -318, 892, 1345, 1213, 148, -278, -768, 1934, -2101, -812, -864, -486, 832, 924, 349, -1146, 73, 1106, -264, -53, 613, 1073, 1349, 745, -311, -1277, 846, 158, 539, -434, 301, 934, 127, 934, 1321, -785, -307, 149, 569, -1349, -726, -354, 816, -1142, 595, 490, 502, 353, -372, -47, 291, 643, 669, -147, -324, 80, 698, 479, -518, 1266, 750, -214, -1117, 169, 345, -776, 535, -641, 191, 881, -1932, 357, -2020, 775, -438, 20, -443, -218, -1145, 416, -1191, 339, -221, 1882, 671, 315, 1486, 1362, 442, -765, 1057, -186, 293, 27, 8, 1124, 1208, 907, 1365, -738, -415, -1156, 971, 305, -112, -525, -941, -1368, 738, 710, -734, 1265, 527, 381, -849, 208, -807, -9, 888, 674, 601, -349, -100, -174, -319, -893, 508, -248, -852, -224, 495, 320, -76, -207, -1986, -80, -1912, -339, 644, 130, 534, -409, -294, -311, -1224, 171, 1061, 1265, 253, 636, 2325, 2410, 929, -2184, -312, -163, -1042, -88, 563, 1300, -103, -870, 32, -313, 1278, 365, -921, -835, 652, 1026, -572, 225, -452, -207, -904, 365, -199, 1486, 684, 110, -492, 1285, -436, -431, 587, -552, -332, 1278, -106, -800, -796, 253, -1239, 989, 568, 320, 647, 707, -1257, -103, -865, -259, -426, -572, -384, -11, -215, 33, 347, 1884, -497, 286, 682, -130, 1961, 1812, -438, -1511, 25, 28, -740, -815, -931, 322, -347, 1349, 1019, 516, 163, -133, -598, -1113, 1629, 520, -994, -1775, 87, 324, 1056, 1053, -21, -231, 877, -245, 992, 848, 12, -1125, -505, -679, 317, -885, 2270, 1180, 160, 241, 578, -437, -804, 876, -1042, 250, 2, 154, -1868, 28, -153, 280, 1237, -706, -961, -50, 517, 903, 442, 910, 364, -780, 780, 1587, -212, -281, -1156, 673, -257, 355, 514, 430, -384, 475, 1144, -426, -492, -301, -663, -896, 366, 1953, 1025, -1244, -535, 986, 828, 1433, 327, 2172, 242, 1241, -776, -401, -105, -1956, -897, 619, 1062, -875, 2270, -580, -537, 1162, 125, 1421, -26, 541, 695, 623, 45, -783, -1756, -142, -739, 962, -417, -534, -353, 466, 558, 919, 295, 1102, -475, -467, 1595, 704, -188, -1861, -306, 1313, -358, -230, -37, 1003, -111, -102, 1019, 535, 417, -1410, -865, -1320, 472, 1465, 245, -1188, 1246, 1286, 140, 1775, 396, 796, -4, 129, 949, -627, -85, -1493, -333, 403, -609, 1109, 1947, -337, -931, -882, -1697, 524, -141, 698, 281, 1115, -1846, 1061, -2655, 474, -96, 931, -444, 462, 904, -779, -405, 1496, -434, 1909, 1078, 1138, 1660, 20, -120, -1840, -1083, -845, 74, 663, 1318, 487, -503, 456, -121, 467, -746, -1477, 1041, -3087, 2202, 877, -124, -2020, 340, 1453, 645, 1759, -463, 1356, -341, -786, -89, -1529, 881, -1541, -41, -58, 835, -326, 1961, 585, -476, -637, 94, 151, 147, 426, 1125, 958, -739, -737, -2762, 692, 79, 974, -954, 1351, -291, -110, -738, 1261, 966, 1904, 1263, 156, 1399, 326, 139, -1840, -1956, 285, 342, 166, 1255, 1129, -1350, 1086, -61, -704, 107, -1161, -203, -3709, 1356, 919, -515, -1130, 210, 541, 1399, 1585, -605, 3489, -343, 469, 397, -37, 914, -2557, 268, 1476, 784, -325, 1659, 789, -1743, 1245, -276, 807, -304, 1320, 660, 2176, -903, -355, -2359, -735, -518, 168, -1112, 787, 1515, 1, 985, 3166, -217, 1789, 298, 531, 461, 1366, -358, -294, -165, 806, 1342, 347, 938, -755, -2999, 11, -129, 357, -150, -33, 147, -2988, 1545, 838, -1012, -2410, 1011, 2235, 1462, 2668, -646, 2615, -954, -493, 1162, -788, 386, -1006, 855, 1971, 1491, -1069, 1715, 996, -1982, 275, 264, 2327, -816, 1217, 458, 2822, -1191, -1115, -2998, 1202, 940, 470, 189, 867, 1483, -223, -625, 3327, -252, 1280, 1349, 737, 2583, 1237, 449, -1150, -1862, 791, 1051, 1018, 257, -900, -2242, -243, -1289, 1275, 351, -295, 10, -4430, 2858, 47, -742, -3412, 652, -786, 1113, 2391, -314, 1476, 242, 575, 33, -2300, -248, -614, -455, 852, -214, 641, 4475, 281, -3099, -20, 1405, -86, 748, 60, 580, 803, -1067, -1079, -4531, 591, 953, 259, -848, 762, 441, 297, -1182, 4181, 133, 3429, 641, 1559, 1852, -600, 93, 273, -1359, -346, -430, 1014, 1148, 32, -2031, -165, -893, -46, 252, -285, -658, -2850, 2325, 1548, 163, -3594, 1116, 1422, 1923, 3039, 1294, 1451, 653, 1209, -296, -2547, -362, 972, 252, 1819, 660, 0, 2396, -88, -2205, 429, -292, 1037, -499, -617, 786, 2066, -1544, -1020, -3953, -702, 1295, 1212, 467, 1195, 1892, 81, -1851, 4315, -846, 2924, -514, -207, 2171, -1626, 1621, 306, -1121, 1020, 1616, 886, 421, -359, -3291, 841, -961, 1263, -549, -231, 708, -2211, 3479, 949, -922, -3103, -319, -1118, 1351, 3799, -805, 3154, -284, 211, -926, -1825, 584, -1639, 1224, 2667, -419, -864, 4003, -142, -2359, -275, -774, -78, 1050, -787, 439, 1305, -8, -1653, -4641, 1039, -452, 1196, -768, -428, 1191, 2098, -1511, 4549, -881, 3341, 417, 738, 2518, -104, 2327, -1708, 47, 625, 2421, -502, 1208, 226, -1971, 508, -404, 827, -96, 294, 729, -2079, 2485, 1782, -1576, -3699, 40, -343, 2215, 3011, 1329, 1860, -89, -368, 509, -1049, 910, -1640, 913, 2098, 1643, 262, 2674, 475, -1285, -473, 1225, 329, -294, 232, 360, -114, -1883, -1754, -4341, 607, -882, 492, -839, -944, 1810, 464, -3216, 3594, 825, 2453, -584, 663, 1584, 98, 1893, -1782, -17, 586, 200, -698, -316, -34, -1576, 1115, -1078, -531, 613, 130, 148, -572, 2361, 2135, 218, -1445, 834, 752, 2172, 1960, 771, 439, 1046, -792, 884, -619, 723, -881, 540, 668, 1796, 68, 2632, 749, -1628, 1139, -495, 713, 1221, -183, 89, -650, -1560, -1306, -3044, 210, -901, 1211, 78, 1148, 1, -182, -1077, 2990, 714, -3, 1040, 1524, 2277, 1019, 928, -2083, -1108, 665, 1804, 494, -639, 1285, -1653, 344, -892, -278, 1255, -1321, -454, -1197, 3058, 928, 378, -1576, 274, 809, 2928, 2892, 854, 1674, 944, -299, 445, 920, -353, -2038, 1280, 1054, 756, 1164, 2907, -725, -194, -935, -1660, -54, 154, 695, 385, 12, -1327, 615, -2078, -85, 710, 316, 665, 906, 325, 540, -260, 346, -530, -566, -390, -171, 2071, 3779, -142, -1944, -622, 524, 1435, -615, -70, 195, -2576, -479, -785, 336, -386, -2340, -776, 152, 2794, 468, 1932, -1401, -284, 942, 2302, 1960, 1325, 1955, -758, -708, -723, -513, 934, -2965, 957, -776, 392, 535, 3039, 671, -1747, -285, -109, 1693, -404, -150, 1589, 226, -2089, -949, -1566, 458, 154, -767, -652, 185, -1149, 682, -2740, 1718, -151, 373, -76, 196, 2943, 3577, 120, -2806, 857, -394, 2020, -617, -482, 1028, -2812, 168, -238, 1304, 151, -531, 457, -1999, 2091, 472, 387, -2708, -43, 1375, -103, 2492, 1161, 230, 1266, -554, 395, 795, 1291, -925, 1237, 360, -829, -87, 2884, 1005, -943, 1061, -677, 865, 172, -198, 1307, 1569, -1925, -809, -320, -731, 1069, -526, 454, -702, 572, 649, -485, 325, -532, 4, 1008, 597, 2710, 1330, 319, -326, 548, -473, 921, 24, 1287, 859, -2024, 946, 569, 138, -237, -914, 1096, -1273, 807, 2002, -144, -602, 11, 539, 1741, 2018, 161, 1398, 1010, -491, -270, 509, -706, -2410, 153, 155, -305, 1243, 2471, -478, -1838, 587, -1352, 1510, 1267, -634, -439, 1102, -2257, -270, -1761, 1309, 1091, -28, -568, -167, -538, -887, -845, 917, 484, 177, 335, 184, 2780, 1762, -40, -2417, -617, 910, 1527, 613, -849, 1144, -880, 448, -177, 823, 1103, -711, 1232, -1243, 1206, 839, 1376, -1033, -903, 639, -556, 979, 746, 376, 1111, -832, 456, 877, 152, -1581, 74, -130, 457, -236, 2492, -41, -573, -346, -813, 163, -319, -591, 422, 335, -1110, 290, -1702, -628, -344, 307, 351, -108, 23, -186, 445, 1530, 719, 635, 985, 1436, 2245, 976, 1397, -690, -459, 519, 1210, 1329, 1303, 260, -1245, -65, 505, 1275, -351, -1256, -105, -348, 672, 794, -5, -217, 1041, 909, -968, 1169, -887, -415, 1137, 132, -138, 1440, 920, -1134, -787, 50, -474, 1543, 1120, 441, -56, -189, -1203, 563, -433, -836, -31, 1208, -2022, 35, -1274, -721, 364, 662, 340, 1103, -86, 889, -655, 729, -641, 1512, 748, 107, 1366, 1360, 444, -1444, -847, 1257, 75, 646, 1007, 761, 160, -897, 476, -852, -362, 549, -508, 435, -315, -47, -887, -1932, -382, 1227, 694, -129, -177, 1235, -207, 1227, 1054, 237, -350, -664, -632, -22, 1174, 1005, -628, 165, 819, 1302, -1539, -161, 1236, 880, 166, 1423, -1579, 1553, -2812, 984, 1181, -822, -129, -221, 457, 570, -475, -303, 1323, 427, -361, 1304, 655, 103, 1359, -1719, -436, 587, 249, 1201, 254, -366, 2, -109, 1239, -478, -744, 584, 188, -832, 23, 1140, 200, -629, 126, 947, -204, 1161, 631, 220, -989, 211, 344, 1288, 108, -378, 166, 1026, 1171, 1183, 124, 51, 769, 1198, -190, 1050, 1292, -123, 594, 368, -795, 145, -966, 691, -230, -266, -220, 630, -165, -1284, 1031, 1748, -761, 1362, 9, 860, 2203, 1612, 1508, 33, -583, 731, 363, 240, 692, 285, 1217, -751, 336, 220, -366, 323, 1046, 165, -683, -101, 314, -1539, -94, 566, -381, -711, 931, 1257, -563, 437, 26, 1031, 325, -1125, 406, 235, -179, 613, -96, -811, 335, 462, -948, -274, 692, 1106, -839, -557, -983, 946, -1406, 431, 860, -525, -774, 1048, 798, 426, -579, 39, 284, 263, -167, 853, 2544, 2512, -672, -1771, -130, -144, 733, -265, 143, 1110, -541, 671, 563, 893, -962, -479, -502, -432, 160, -331, -269, -1175, -694, 1269, -1182, -622, 1166, 1216, -1058, 622, 156, 271, 275, -974, 372, 244, 541, -536, 360, 526, 926, 877, -956, 646, 1226, 390, -1150, -68, -1734, 470, -1221, -536, 842, 361, -599, 962, -465, 332, -1153, 952, 387, 423, 478, -28, 1642, 449, 1442, -2222, -276, 105, -917, -501, 993, 537, -236, 80, 535, 810, 1263, 160, -847, -1604, 597, -336, -11, -843, 1121, 455, -399, -382, 744, 198, -599, -38, -633, -109, 1517, -1392, -906, 758, -997, -158, 5, 400, -1189, 713, -99, -981, 442, -282, -400, 14, -613, 1103, -460, 1332, -356, 216, 970, 485, -395, 289, 46, 1358, 1030, 328, 371, -312, 1207, 2054, -408, -160, 119, -256, -587, -111, -571, -678, 291, 414, 564, -858, -754, -985, 289, 214, -577, 1598, -374, -502, -818, 899, -1145, -148, -318, -894, -182, -33, -289, 789, 1402, -1167, 107, 557, -134, -40, -141, 1224, -844, -301, -240, 88, -151, 675, -977, 652, -1844, -100, -1036, -241, 287, 513, 883, -888, 726, 93, -197, 1314, 700, 535, -360, 1110, 2432, 650, 873, -28, 142, -105, 469, 1327, 242, 762, 222, 880, -336, 1012, 595, -744, 353, 390, 318, 524, -1100, -1561, -785, -274, -908, -173, -473, -767, -492, -362, 418, -560, 353, -934, -484, 770, 1182, -509, -91, 1129, 703, -816, -680, -318, -370, -91, 687, 324, -505, 649, -2526, -693, -162, -882, -925, 878, -246, -1188, 594, 987, -655, 1209, -547, 1036, 1288, 350, 201, -623, 426, -307, -617, 809, 549, -634, 1040, 169, -632, -243, 881, 448, -205, 463, 482, 1389, -650, -652, 1094, 842, 179, 574, 600, -411, 380, 299, -543, -665, 932, -827, 841, -301, 11, -24, -179, -281, -947, -496, -149, 1164, 978, 162, -479, 287, -151, 1196, -880, -546, 871, 1074, 1225, 207, 300, 407, -872, 248, 886, 1687, 321, -69, 2419, 2344, 1176, -784, -1053, -588, -1083, 1060, 103, 38, -827, -426, 377, 605, 1008, -581, 31, -736, 972, -504, 174, -1920, 366, -287, -31, -411, 1019, -738, 392, 1059, 658, 588, 1418, -1748, -698, 51, 75, -235, 841, -308, -1302, 627, -834, 1087, 1107, -558, 1003, 334, -2102, 1730, -2076, 58, 37, 194, -647, 713, -401, -424, 302, -227, -512, 2005, 587, 701, 575, 1233, 1058, -870, 167, 599, 2, 175, -124, 231, 900, 477, 260, 890, 1231, -4, 275, -163, -429, 663, -1191, -636, -265, -285, 447, 945, -549, 442, -1085, -340, 361, 296, 877, -841, -71, 1079, -1284, -328, 1050, 499, 648, -96, 988, 499, 971, 1331, -289, 166, -117, 1067, -601, -171, 947, 1177, -828, -83, -533, -523, 988, 851, -569, 1105, -484, -57, 2831, 716, -410, -2371, -849, -117, -953, 426, -248, 1072, 932, -932, 176, -674, -522, 363, 937, -611, 137, 449, 754, -1444, 1034, -238, -56, -447, -708, 1296, 805, 142, 1244, 796, 23, -581, 358, 634, -555, 129, 1346, 479, -868, 1038, -596, 392, 91, 1268, 1040, 545, -1137, 856, -480, 470, 515, 936, 611, 781, 844, 285, -166, 586, -459, 1612, 627, -490, 2097, 1152, 1242, -181, -1169, -189, 1354, 914, 1231, -551, -974, 591, -577, -718, -52, -441, 850, -941, 1379, 1659, 889, -1779, 477, -287, 876, 1102, -255, 668, -194, 432, 526, -494, 1462, -1341, 199, 1343, -643, -914, -207, 1210, -1308, 533, -790, 617, 511, 268, -791, 1155, -1214, 280, -1610, 974, -395, -279, -311, -812, 1130, 915, -101, 1269, 190, 515, 443, 251, 925, 1252, 85, -954, 44, 711, -151, 76, 724, -109, -1744, -302, -736, 541, 1168, -564, 357, -2146, 6, 391, 175, -1824, -761, 132, -506, -388, 20, 909, -1548, -384, 1146, -1874, 1031, -2449, 304, 1317, -5, 240, -544, 930, -1634, -312, 1479, 1465, 597, 932, 873, 971, -581, -740, 27, 1267, 171, 396, -522, 975, 1094, -1265, 1528, 1153, -515, 101, -25, -597, 1789, -418, 1397, -717, -413, -1096, 1550, 1100, 484, 1146, -1957, 93, -541, -413, 680, 858, -841, -3780, 2169, 2613, -152, -969, 537, 1745, 1309, 1511, 1104, 3351, 858, 448, -797, -1307, 198, -1009, 1084, 1847, -860, -1172, -1159, -850, -2572, -268, -238, 870, -97, -764, -104, 1732, 98, -2356, -1881, -321, 752, -594, 34, 159, 242, -1070, 3064, 2158, 13, 1811, -585, 451, 1281, -371, 1479, 1011, -1820, -893, 877, 118, 1012, -266, -2505, 628, -1023, 1009, 254, 1001, 528, -2176, -477, 2085, -2416, -1436, 968, 2427, -50, 986, 687, 3418, 1718, 804, 167, -2411, 1766, -1010, 222, 1350, -614, -1067, -948, -374, -2659, 940, -320, 124, 128, -274, -282, 3439, -794, -3982, -1362, -151, -570, 1389, -1091, 1159, 1036, -948, 2486, 2627, 500, 2032, -931, 1082, -701, -3228, -143, 1494, -2304, -270, 1515, -824, 540, 500, -1598, 1027, -1023, -209, 249, 45, 720, -2976, 1646, 2448, -2166, -3894, 22, 3014, 2994, 526, 1200, 7507, -1126, 600, 188, -252, 1973, -550, 960, 2786, -286, -456, -573, 1353, -2937, 91, 1343, 1791, -418, 52, 506, 2920, -1239, -3622, -380, 1069, 151, 37, -1008, 905, 1571, -1110, 3188, 1939, 92, 921, -323, 657, -207, -3794, 1378, 1524, -3755, 38, 2483, -474, -707, -60, -1185, 511, -2898, 873, -836, 1420, 246, -3242, 1658, 2395, -2335, -5144, -880, 1700, 2329, 181, -276, 7142, 125, 1155, -116, -2023, 1025, -3147, -571, 2576, -570, -409, 437, -598, -3575, 136, 2858, 78, 822, 843, -668, 2122, 586, -3181, -1674, 1116, 1008, 1110, -1697, -818, 2278, 318, 4194, 1091, -370, 4020, 1413, -1302, -1396, -4865, 1904, 1924, -3303, 780, 920, -632, 674, 1239, -1646, 991, 1252, -640, 530, 2937, -749, -5290, 2494, 2358, -1052, -5022, -548, 2195, 1687, 2211, 432, 5468, -379, 1011, 332, -4036, -403, 376, -954, 3141, 123, -1527, 2821, 1017, -6452, 657, 2706, 1538, -693, -771, -300, 2829, -420, -5139, -2878, 443, 1021, 783, -2704, 241, 2745, 2297, 2231, 1695, 62, 2330, 482, 1429, 198, -5099, -509, 3629, -2507, 229, 652, -1033, 1261, -827, -2028, 1157, 444, -864, 1114, 1087, -814, -1975, 1284, 3219, -1016, -4224, -655, 1626, 1638, 1340, 811, 5916, -2714, 1316, 1338, -1606, -195, 3584, 435, 125, 362, -1916, 4724, -116, -5844, 446, 1580, 2951, -816, -151, -426, 2110, -1656, -5789, -841, 113, -914, -322, -4805, -1314, 2439, 3007, 3037, 1625, 704, 1830, 455, 242, -958, -6739, -1133, 941, -3603, 2872, 33, 800, 396, -748, -1410, 1071, 1852, -837, 345, -964, -1208, -1917, 1156, 2472, -1910, -3608, -444, 2811, 3332, 2055, 1186, 4838, -4307, -919, 446, -1176, -354, 4344, -289, 1603, 2372, -2290, 3667, -105, -3345, 1156, 2041, 1594, 568, -312, 464, -1214, -835, -5158, 368, 207, 970, 905, -5127, -1088, 2635, 3697, -531, -474, -53, 725, 555, 25, -1846, -5491, -735, 701, -3958, 1602, -179, 822, -579, -213, 12, 919, 1521, -785, 1225, -538, 488, -1938, 1812, 2295, -1485, -3848, -809, 1419, 2294, 1429, -622, 2931, -2548, -857, 968, -3256, -855, 4947, -237, 1808, 4761, -1406, 3754, 1291, -2894, 1249, 2204, 2597, 1441, 845, 2057, -2248, -1988, -7575, -594, 359, 1122, -232, -4250, -1323, 1935, 3940, -1232, -304, -22, -792, 562, 797, -940, -2555, -185, -1010, -2365, 3167, 923, 591, 852, -343, -2062, 1246, 3931, -13, -158, -2725, -1136, -1614, 1976, 1572, -1848, -2632, 1051, 604, 2275, 520, -533, 3327, -1012, 624, 1019, -2031, -1227, 1769, -240, 1247, 2346, -187, 3991, 1213, -3646, -549, 2565, 2748, -708, 1131, 1190, -5157, -2146, -3888, 183, 405, -58, 1353, -3331, 943, 14, 34, -845, 551, -530, -2569, 1064, -206, 3360, 1035, -807, -105, -2019, 1939, 904, 553, -806, 666, -1582, -85, 2330, -611, 983, -1789, 845, -1785, 4048, 1038, -5, -4032, 683, 940, 2178, 2666, 1037, 2871, 953, -796, 721, -1401, -3865, -945, -750, 2258, 3535, 273, 3855, -251, -3329, 1123, 3417, 313, 1348, 818, -15, -4327, -1954, -172, 387, 120, 111, -1077, -3397, 127, -292, -687, -1622, -1340, -838, -2847, 479, -16, 2727, 3961, 643, 1185, -952, -330, 1843, -270, -489, 537, 736, -140, 376, -91, 488, -1136, -88, -709, 5092, 627, -804, -3282, -101, -406, 2153, 3252, 1114, 4956, 1285, -678, -347, -332, -2111, -5066, -20, 1740, 4052, 730, 2404, -197, -3668, 1238, 3313, 2136, -370, 569, 580, -3344, -3534, 534, 1098, 513, 882, -521, -1947, -894, -427, 695, -2189, -676, 1278, 65, 148, -2078, 3867, 5907, 628, -1642, -76, -2552, 4458, -341, -314, 265, -1157, 28, -2337, -622, 404, 450, -902, 338, 3892, 997, -259, -76, -10, -814, 586, -256, 1095, 2309, 987, 1241, 881, -307, -905, -4866, 944, 723, 1778, 1738, 498, 1222, -2105, -773, 2320, 476, -801, 315, -963, -1896, -4154, -1059, 1922, 524, 320, -766, -2075, -189, -452, 1223, -1400, 124, -593, -624, 553, -1305, 3367, 5601, 900, -2020, -28, -1713, 3151, 903, 363, 930, 448, 150, -1021, 1061, 68, 247, 317, 753, 2503, 445, 1115, -675, 2, 188, -303, 911, 670, -799, 1827, 1315, -254, -333, -1464, -2944, 1042, -550, 450, 868, 2492, 1274, -2423, -428, 982, 517, 919, -172, -1991, -399, -2287, 701, 1120, -519, 904, 550, -306, 1052, -982, 20, -2224, -788, 874, -1058, 1060, 487, 1084, 4955, 333, -2155, 1612, -1124, 1930, -964, 636, 420, -590, -750, -1635, 1066, 33, -54, -222, -1649, 128, 1808, 38, -645, 382, 863, 98, 2854, 1056, -552, 1148, 1048, -966, 512, -34, -1192, 551, -623, 799, -652, 3025, 812, -1057, 768, -1436, 853, 302, -906, -1193, -1052, -3083, 961, 378, 329, -884, -241, 1644, 208, -301, -697, -1765, -719, 383, 1297, -596, 393, 3105, 3261, -107, -2575, 557, 964, 2221, -168, -38, -628, -27, -616, -1531, 352, 229, 1031, 289, 136, 120, 669, -25, -1028, -829, -329, 846, 2221, 1264, 126, 870, 398, 142, -850, -568, -1457, 1268, -1110, 24, -40, 1588, -289, -1090, -956, -1706, 671, 1065, 539, -282, -203, -1850, -1197, -1006, 516, 197, 1218, -632, 1371, -161, -788, -3058, 172, -558, -765, 622, -177, 2425, 1613, -500, -1080, 155, 564, -138, -848, 881, -226, -1486, 592, -2012, -184, 872, -1008, 835, -929, -365, 2008, -457, -1886, 625, -257, 258, 183, -198, -528, 641, 1097, -737, 969, 376, 731, -834, 206, 329, 1489, 876, 331, -933, -354, 383, 1249, -563, -379, 158, 42, -561, -1411, -373, 557, 701, 1353, 190, -378, 723, 467, -284, 452, 1047, 1594, 1206, 1528, 1737, 163, 119, -2080, -1117, 448, -518, 634, 402, -257, -611, 1110, -1705, -876, 220, 934, -151, 188, 968, 1104, -498, -594, 796, 1219, -495, -63, 601, -650, -100, -61, -958, 1184, -336, 638, 18, -971, 694, 1187, 929, 569, -912, 505, 8, -812, 989, -196, 215, 107, -450, 1944, -414, -418, -778, 107, -412, 301, -1247, 375, 1126, 780, -720, 318, 637, -98, 1497, 1468, 1259, -1281, 727, 738, -1480, 551, -734, 954, 901, -787, 204, 894, 808, 1011, 988, -944, 145, 1692, -297, -62, -529, 563, -159, 588, 1035, -432, 782, 767, -537, 1060, 704, 125, 1, 882, -393, 49, 803, -234, -1309, 726, -841, -301, 154, 367, -324, -194, -1412, 311, -1505, -461, 95, 1324, -47, 1378, -1372, -769, 432, 958, -244, 1151, -575, 91, 1661, 1543, -233, -61, -361, 1073, -882, -750, 894, 1129, 40, 203, -418, -965, 767, 296, 264, -464, 780, 792, 489, -1872, 442, -348, -99, -451, 554, -624, -511, 226, 1185, -707, 869, -1574, 274, -498, -900, 1590, 1366, 554, 374, -252, -734, -320, 463, -123, -140, -622, -849, 843, -535, 1280, 580, 1193, -351, 961, 290, 304, -843, 1345, 348, 1089, 356, -510, 2454, 1178, -474, -2286, 313, 657, 640, 1205, -97, 328, 1213, 34, 337, 1350, -314, -82, 916, -342, 239, 835, -340, 149, 139, 15, 644, 1350, -728, 913, 1059, 230, -844, -371, 1007, 96, 1027, 780, 1027, -452, 862, -440, -994, -215, 650, -615, 1278, -224, 258, 1617, -173, 293, -1941, -587, -135, -65, 492, 668, -71, -793, 298, 1763, 1007, 1228, -207, -748, 2017, 2442, -134, -2115, 249, -207, 451, 1133, 706, -401, 1166, 553, 1120, -928, -511, -92, -511, -1279, -207, -77, -697, 128, 613, 541, -432, 660, 1219, 56, -534, -759, -795, 610, 836, 232, -644, 798, -1011, 1400, 1256, 108, 213, 373, -603, -936, -708, -950, -273, 1400, -1766, -48, -1007, 188, 391, -556, 733, 242, -728, -607, 548, 171, 312, 2159, 92, -853, 1769, 1268, 795, -111, 568, -472, -1300, 1283, -688, 278, 43, -50, 400, -967, 964, 157, 1039, -995, 189, 1107, -555, -431, 1054, 1311, -261, 1197, -518, -971, -637, 308, -275, 984, 772, 14, 814, 441, -289, -144, 534, -285, -611, 926, 385, -860, 1309, -463, 569, 36, -8, 1141, -2846, 87, -262, 1375, 180, 95, -728, -506, 92, 1477, 302, 1650, 237, -54, 2827, 1412, 328, -1270, -207, -349, 701, -196, 597, 738, 989, 379, 750, 672, -431, -553, 738, -70, -898, 1450, -185, -1369, 1069, 1088, -628, 1056, 1119, -305, 754, -125, 689, 1531, 686, -147, 476, 355, -486, -28, 1144, 209, -842, -158, -785, 352, 1235, 955, 114, -548, -584, 1741, -2691, 852, 164, 847, -424, -459, 283, 104, 401, -575, 1202, 483, -801, -409, 2161, 1513, -355, -67, -499, 1313, -141, 1340, 319, 501, -900, 0, 1154, 739, 949, -770, -813, -1225, 1084, -626, -486, -513, 697, -984, 637, -570, 1031, 1253, 845, 709, -532, 1534, 1416, -244, 1108, -128, -855, 673, 841, -360, -599, 275, 352, 149, -37, 849, 1243, 1625, -104, 1664, -1781, 978, 836, 47, 888, -845, -705, 483, 736, 378, 1075, 799, 1190, 221, 721, 242, 1148, -1646, 21, -205, -776, -589, -453, -253, 147, 976, 377, 998, 245, -642, 794, -711, 948, -533, 175, -2096, -728, 503, -1238, -423, -620, 2708, -631, 1220, -33, 449, 352, -1026, 434, -173, -840, 942, -1937, 207, -594, -808, 10, 430, 764, -146, -213, 1343, -166, -720, -1122, 84, -673, 968, -231, 697, 1093, 649, -616, 2293, 337, -705, -49, 83, 1133, 246, 811, -2277, -295, 1077, -2136, -587, 855, -721, 32, -124, 1717, -73, -778, -733, 872, -663, -342, -321, 306, -1879, -763, 161, 446, -174, 435, 1920, -415, 158, 596, 1357, 1470, -453, -287, 148, -1996, 1625, -1888, 439, 366, 87, 1536, -383, 487, 1306, 156, 1903, -1022, -459, -1922, -103, 1264, 607, 400, 230, 1595, -983, 677, 1035, -568, 1432, 241, -104, 743, 475, 832, -1313, 660, 370, -3037, -622, -71, 61, 1222, -113, -194, -568, -12, 527, 290, -332, -487, 404, -50, -1700, 1119, 1639, 943, 1367, 503, 3189, -1401, -879, 1119, -319, 1789, -558, -412, 772, -2617, 538, -3111, 445, -388, 320, 2253, -554, 350, -850, 1247, 3850, 1511, -2513, -334, 938, -884, 765, -837, 383, -9, -159, 2383, 658, -647, 266, -449, -1445, 642, -1071, 972, -298, -1097, 150, -2370, 321, 517, 23, 847, -378, 1736, -801, 126, 2307, 1303, -2548, 771, 389, -2328, -3247, -765, 1483, 339, 482, -406, 3847, -829, -644, 104, -757, 380, -1073, -849, 630, -2680, 1018, -4228, -209, -1010, -515, 1523, -353, 32, -850, -38, 4739, 968, -3721, 527, -509, -1070, 11, -2160, -491, 1518, -246, 1417, 2606, 569, -474, -96, -934, -1598, -2269, 897, 580, -864, -185, -1595, 1277, -665, 1184, -2688, -331, -333, 1043, -279, 2307, 730, -3453, -1711, 1870, -4291, -2404, -135, 2829, 438, 2646, 376, 1766, 1439, 515, 1200, -2719, 1993, 424, 1320, 2815, -2073, -1848, -6136, 504, -1080, 562, -1306, -1655, 207, 1359, 1311, 5033, 2545, -4997, 495, -800, -266, -779, -1662, 882, 775, -504, 6663, 3160, -914, -1290, 1178, -2195, -2430, -4718, 1274, 3782, -769, 316, 188, -540, -560, 1216, -2708, 1120, -1826, 533, -863, 2272, 1034, -456, -388, 2089, -4281, -3853, 1325, 3235, 2337, 1620, -497, 4787, 686, 1227, 634, -895, 2252, -2228, -336, 5053, -2750, 2506, -5280, -785, -1689, 1121, 2704, -1132, -197, -894, 1077, 5802, 2952, -7157, 1013, -326, 259, 755, -1853, -135, 1831, -2189, 6979, 1332, 569, -387, -161, -876, -3803, -6594, 2294, 4591, -878, -332, 1879, 1214, 419, 1121, 371, -330, -2779, -354, 1264, 3578, -246, 1310, -272, 145, -5435, -2851, 1408, 3635, 1943, -3331, 375, 4915, 1758, 669, -312, -57, 3192, -1505, -931, 4462, -755, 1464, -4761, 435, -1305, 290, 3137, -402, 835, 1269, 1590, 3823, 4723, -6285, 4173, 277, -408, -348, -3789, -263, 2446, 902, 8108, -2473, 877, 711, 1332, -1056, -3330, -6736, 1392, 5597, -1676, -547, 3061, -335, 112, 744, 2181, -54, -2076, -743, -223, 2241, 463, 1839, -2185, -476, -2271, -2990, 829, 1342, 2183, -1672, -736, 2172, 1675, -706, 1139, -1837, 1335, -2577, -603, 4612, -3180, 3009, -1753, -815, -2445, 354, 3848, -1347, -379, 689, -1182, 4062, 5944, -4941, 3215, -1361, 881, -872, -4180, 114, 4881, 681, 6179, -1592, 124, 1725, 619, -2679, -4289, -8110, 3400, 4467, -1833, 2482, 2034, 1252, 267, 106, 943, 1350, 531, -225, -863, 4357, 377, -2476, -3045, -501, -1280, -2029, -813, -282, 4377, -103, -147, 835, 2423, 1113, 1111, 113, -2931, 383, 1303, 1634, -4736, 3385, 3960, -1212, -3410, 67, 4712, -1188, -693, 438, -3520, 3978, 6337, -6750, 1808, -712, 41, 708, -3774, 932, 3329, 1909, 4528, -2218, 247, 3343, 889, -898, -3144, -6141, 1260, 2371, -1742, 4924, -1499, -529, -216, -518, -86, -764, 1615, -24, -911, 4025, -762, -432, -2801, 70, -519, -1989, -154, -302, 4423, 1258, 1367, -735, -345, 119, -815, -194, -4945, 3360, -591, 1402, -1225, -1869, 6507, 680, -5998, -527, 4792, 1328, -589, 83, -3355, -1028, 5545, -8744, 1606, 174, -388, 109, -3612, 190, 4484, 586, 774, -4506, -421, 3242, 508, -303, -4707, -6090, -1127, 2693, -1738, 5684, 212, 916, -338, -422, -1256, 1134, 1856, 929, -233, 5056, -45, -357, -1486, -638, -1090, 188, 478, -487, 5157, -2407, 228, -1611, -1965, 404, 135, -1756, -5649, 6081, 421, -39, 4132, 1297, 5236, -1310, -5714, -20, 7659, 1601, -533, 1285, 874, -7624, 6556, -6181, 5340, -803, -798, 489, -3404, -193, 1904, 4228, 585, -6736, 186, 646, 313, -1303, -6868, -4026, -901, 3618, -955, 8384, 3400, -106, -753, 309, -1545, 884, 3149, 1450, 1076, 3494, -1024, 148, -863, 492, -851, -895, -357, 1582, 6120, 3336, -796, 292, -3518, -771, 81, -868, -6356, 9434, -10, 2006, 6806, -426, 4554, 710, -10533, 1131, 6712, 1500, -823, -119, 2728, -8806, 3783, -4145, 4768, 916, 1250, -721, -1319, 172, 2868, -1726, 553, -3980, -1011, 269, -1214, 2328, -3152, -3492, 215, 1296, -832, 9005, 5219, -880, 347, 1363, -1692, 510, 1480, 717, -222, 4050, -661, 3859, 1067, 1459, -1798, 94, 162, 2202, 3569, 2978, -272, 1637, -3570, -411, 343, 219, -4164, 11463, -482, 1403, 6980, -3952, 3119, -88, -7844, 1014, 3107, 2628, 66, -199, -107, -10016, 1959, -4812, 1709, -615, 651, -721, 2083, 84, -939, -3131, 744, -2653, 1029, -1693, 830, 3729, -2090, -3264, -1805, 2793, -1530, 5611, 2773, -84, 29, -241, -1732, -39, -3286, 680, -18, -1695, -1090, 6405, 632, -786, -2482, 831, -369, 1383, 1024, -1496, -343, 1387, -1764, -198, 240, 2300, -3075, 7058, 479, 3715, 5349, -1898, 896, -509, -5892, 1061, 2019, 1297, 1031, 483, 3320, -9971, 110, -3034, 936, -1038, -57, 670, 1514, -1144, -839, -382, 919, -4442, -884, -2733, 1255, 143, -924, 413, 635, 2639, -860, 4273, 464, -971, -721, 788, 4163, 464, 777, 937, -25, 88, 645, 2095, 1987, 646, 593, -6, 1123, 417, 1455, 3029, 700, 1597, -1017, -148, -478, 1050, -4265, 1095, -469, 1940, 2659, -858, 879, 467, -6686, 232, 1983, 1591, -173, -285, 6595, -7833, -1812, -3308, -1375, -628, -136, 4, 1868, 551, 2764, -1953, -2173, -3931, -479, -711, -413, -2832, 2761, 964, 2265, 652, -45, 1939, 2451, 465, -465, 1174, 2555, -553, 196, -843, 300, -1171, 303, 520, 3076, 1136, 1355, 1137, 359, -975, -294, 2812, -603, -1503, -577, 927, 56, -1247, -3300, 561, -906, 2300, 2219, -235, 2124, 1250, -2244, 340, 519, 1643, -561, -40, 3579, -5055, -2941, -1212, -771, -613, 1115, 290, -135, -56, 2336, -1695, -3079, -4137, 499, -2916, -140, -2973, 1804, 2605, 2422, -3184, 586, 3251, 2927, -905, -227, 644, 1116, 770, 963, 174, 1072, -1684, -552, 31, 2384, 294, 3392, 1116, -692, 388, -1316, 2472, 120, -2275, 430, -952, 256, 192, -3930, -6309, 647, 2132, 3901, -333, 1811, 1329, -1807, 738, -204, 77, 701, 1277, 1076, -4644, -4129, -1707, 1199, -431, 94, -149, 653, -141, -1443, 761, -3440, -4483, -146, -2840, -53, -4951, 3184, 5541, 1218, -3570, 682, -1121, 3492, 580, -949, -241, 1331, -826, 1591, 374, 1267, -395, -921, -887, -191, 76, 2816, 3344, -480, -367, -2181, 2151, 178, -2115, 2216, -283, -959, 267, -1884, -3280, -298, 416, 1755, 969, 1995, -654, -1178, 571, -1505, -637, -832, -76, -533, -2858, -3361, -2583, 1438, 699, -443, 1207, 2089, -548, -1333, 1336, -2771, -2640, 1099, -2819, 1073, -2594, 3266, 6133, 159, -3871, 923, -1228, 960, -324, 1328, 573, 237, 461, 1307, -893, 76, -46, 966, -1470, 544, -100, 1910, 1310, -299, 757, -1855, 2515, -74, -1043, 3275, -451, 909, 1348, -808, -3879, -513, 1493, 1248, 2337, 417, -554, -1344, -322, -218, 1109, -740, -251, 281, -1650, -3480, -2557, -365, -332, 497, 643, 1520, 733, -1568, 1588, -3254, -724, -264, 1390, 407, -3946, 2662, 4454, 965, -2499, 2852, -1969, 1800, 93, -470, -913, -958, -282, -610, -287, 17, 509, 1126, 731, 701, 262, 314, 2224, 1117, 53, -1446, 44, 936, -1386, 2404, 1019, 951, -266, -121, -1351, 992, 1480, 1059, 750, 165, 613, -97, 527, -551, -666, 593, -290, -825, 87, -910, -1781, 164, 1321, 476, -280, 552, 328, -972, 765, -287, -43, 1124, -769, -413, -2811, 1420, 2281, 2003, -1959, 2395, -1679, 1503, 464, 431, 757, -424, 1203, -55, 1304, 209, 85, -597, 398, -451, -79, -740, -184, -138, 64, 285, -617, -815, 17, 183, 356, 637, -6, 57, -567, 437, 1678, 269, 1662, 545, -274, 841, 1137, -554, -1151, 623, -611, -474, 519, 387, -244, -1424, 30, -720, 1047, 1278, 691, 323, 555, -773, 717, 186, -681, -364, -523, -79, 931, 344, -794, 2265, -893, 615, 1311, 637, 708, -636, 1122, -59, -113, -753, 1031, 1357, -467, 6, 1060, 1185, -173, 474, 195, -399, 464, 1159, 676, 936, 394, 842, 438, 297, 74, -877, 929, -352, 1228, 1784, 304, 241, 1231, 179, -817, -29, -476, -575, 1766, 142, -283, -1670, -675, 244, 816, 563, 1290, -580, 723, -1114, 963, 946, 629, 747, -610, 2200, 2464, -355, -1946, -617, 1472, -945, 797, 1145, -65, 866, -11, -984, 14, 1033, -52, 790, -641, -466, 768, 816, -1192, 442, -557, 718, -346, 138, -45, 63, -578, 75, -202, -142, 110, 222, 314, -565, -601, 715, -782, -1175, 862, 624, -247, 297, 402, -544, 921, -1865, -24, -2645, 676, -355, -817, -734, 941, -705, -747, 434, 1579, 922, 267, -785, 410, 2582, 891, 139, -575, 272, -466, 648, 1143, 1197, 518, -481, 774, -882, -874, 326, 169, -793, 144, 116, 43, -1156, -1066, -691, -29, -203, 562, -749, 559, 550, 415, 367, 479, 812, -256, 711, 656, -125, 1268, 1526, -53, -338, 878, 47, 51, -401, 732, 1109, -2, -1667, 1720, -2135, -968, 1122, -263, 1204, 691, -524, -411, -50, 977, -407, 2082, 314, 643, 1259, 1742, 1439, -883, 1142, 752, -1438, 679, 1310, -784, 1226, -621, 695, -922, 1103, 112, -896, 248, 852, -394, -1141, -1764, 839, -576, -71, 1099, -153, 202, -802, 14, -193, 1266, 849, 261, 1112, -131, 1034, -15, 609, -747, -262, 305, -312, -979, 1177, -80, -386, -365, -1693, 917, -1747, 537, 1297, -395, 799, -650, 457, -77, -635, -175, 1155, 150, 534, -706, 2682, 1672, -161, -393, 574, 1269, -202, 1044, -495, 348, -953, 116, 93, 1350, 1275, 105, -947, -780, -266, -317, -402, -91, 973, 957, -1175, 353, 491, -425, -631, -697, 1243, 407, 711, -2, 780, 578, 243, 1451, -426, -968, -1161, 1018, 146, 1098, 383, 1368, 149, 407, -932, 823, -791, -260, -384, -845, -108, 703, 633, -1177, 255, -405, -651, 374, -541, 803, 1441, 552, -572, -127, -771, 1495, 188, 1147, -686, 1029, -819, 483, 1119, -196, -294, -478, 1134, -911, -909, 19, -522, 36, 182, 973, 373, 836, 1242, 1356, 69, -528, -427, -47, 16, -1038, -433, 868, 445, 1656, 884, 7, -483, -430, -947, 882, -184, 81, 783, 465, -1065, 282, -1762, 794, -231, -373, 651, 729, -763, -1255, -320, 106, 1144, 1632, 565, -828, 1585, 2506, 678, -62, 244, 290, -1153, -653, -237, 155, 1532, 163, 883, 648, 878, 651, 601, -201, -451, 968, 1395, -864, -48, 3, 894, 666, 467, 1851, -369, -518, -437, 1372, 1601, -1659, -682, -844, -2287, 1801, -1206, 1079, 114, 292, 17, -198, 337, 634, 826, 1137, -848, 96, -2476, 1263, -340, 368, 45, 247, -249, -264, 884, 1715, 1285, 1343, 589, -1396, 2094, 281, 796, -1748, -924, -772, -1385, 1078, -332, 781, -499, 1275, -343, -16, 610, 1300, 1147, 989, 596, -383, 1108, -2920, 295, -2365, -1198, 445, 569, 3914, -2232, 35, 1346, 1175, 341, -3041, -215, -103, -2984, 1923, -4372, -440, -914, 80, 3576, -948, -698, -635, 845, 804, -703, 877, -1394, -194, 451, -202, -1298, 574, 2307, 420, 925, 754, 591, -662, 637, -1689, 2700, 596, 1675, -2411, -1493, 729, -2517, -333, -436, 91, 2763, 1131, 3138, 83, -255, 345, 1020, 82, -1674, 669, 908, -1877, -88, -2445, -1495, -240, 907, 4046, -61, -727, 348, 843, 2291, -2061, 488, -1667, -3192, 2711, -5943, -740, -541, -952, 4048, -1230, 222, 331, 641, 2647, -1261, -3093, -867, 869, 987, 470, -3133, -608, 1610, -70, 1839, 2510, -602, 248, -651, -1673, 1853, 422, 1868, -1886, -2270, 2868, -2689, -707, 264, -825, 3249, 1119, 789, 597, 1126, 1084, -14, 2768, -313, -1117, 357, -3438, 940, -1552, -482, 601, -925, 1529, -1902, -290, 237, 405, 2163, -1667, -388, -1631, -3358, 2631, -6679, -623, -76, 1059, 2494, -1352, 190, 3, -810, 3295, -97, -3018, 72, 872, -720, 715, -3720, -211, 2253, 66, 2912, 789, -616, -202, 961, -3216, -892, -2889, 45, -731, -1617, 1496, -2887, -584, 167, -480, 3780, -481, 1117, 1184, 890, 3604, 1095, 1255, 591, -2202, -1130, -2066, 367, -2570, -1739, -1267, 561, 1398, 646, 805, -15, -1918, 3821, -682, -518, -2819, -2169, 3645, -8436, 220, 1409, -835, 30, -1057, -831, 879, 2251, 2632, -2403, -4985, -754, -582, 760, -317, -2802, 857, 1626, -2360, 5914, 6118, -684, -2160, -972, -1746, -346, -6139, 236, -1451, -1457, -1286, 1987, 902, 386, -904, -437, 788, 254, 426, 932, 2006, -510, 1233, -2681, -2016, -326, -1246, 1288, -1311, -2770, -2705, -82, -452, 4196, -328, 110, -1752, 4127, -2632, -463, -956, -1385, 2095, -7150, 630, 2093, 681, -532, -3184, 495, 1076, 1820, 1865, -1024, -4658, -392, 738, -1340, -599, -1483, -1157, 949, -1184, 7019, 3042, 1292, -117, 568, -1440, -1711, -5114, 3125, -1023, 652, -1693, 4066, -741, -887, 351, -568, -963, -875, 371, 706, -131, 642, 1355, -3943, -5340, -2530, 431, -481, -550, 1353, -4272, -919, 3887, 4925, -889, 227, 767, 3145, -5324, 714, 3639, 1488, 2396, -3724, -273, 1868, -818, -2277, -1116, -428, -563, -42, 5106, 1218, -8138, 1655, -916, 756, 745, -2198, 417, -2326, -48, 7603, 1102, -703, -1371, 24, 121, -4125, -7017, 1989, 3490, 894, -3758, 4242, 1361, 980, -467, -887, -2, -2982, -395, -47, -2971, -871, 5141, -2474, -7061, -266, 2743, 165, -1171, 46, -7285, 765, 3190, 5185, 596, -895, 1063, 274, -5333, -21, 6989, -645, 1003, 3330, -478, 4133, 42, -2086, -4033, 26, -171, -3771, 7168, 4088, -5756, 4817, 102, 753, 740, 787, -730, -3893, 1574, 6853, -2058, -32, 1008, 642, 220, -4442, -5658, 1947, 5270, 2704, -3129, 4773, -152, -115, 943, -1995, -598, -1683, 547, 301, -1871, -190, 5610, -1387, -5804, 1254, 2552, 1016, -4979, -2526, -2675, -697, 2709, 4928, -363, -747, 3700, -2954, -6153, 1286, 7079, -4468, 1861, 5932, -415, 3420, 28, -1031, -6594, 840, 548, -8885, 5932, 5559, -4074, 5264, 303, 437, 565, 2161, -1323, 1110, 2263, 6396, -206, 483, 1345, 585, -2188, -3220, -4681, 2836, 1293, 525, -488, 1268, 1306, 499, 909, -1725, -707, -1443, -276, 62, -1995, -673, 1116, -712, -5437, 5021, -25, -618, -4220, -2070, -4008, -928, 1736, 1466, -196, -809, 2698, -5355, -198, -30, 2559, -2, -526, 9112, 160, 2602, -968, 175, -6106, 721, 1212, -5326, 4917, 3028, -6124, 5616, 668, 978, 499, -493, -1128, 717, 5813, 8542, -2910, 420, -954, -259, 3132, -4615, -2843, -3427, 3559, -4782, 451, -3244, -614, -105, -788, -4726, -357, -1270, -707, -685, 851, 753, -2254, -4168, -4686, 2908, 1939, -762, -116, -2623, 2964, -130, -2576, -1031, -154, -233, -2899, -9475, 934, -877, -1439, 226, -2579, 9551, -1066, -3147, 830, 1913, -3330, 1033, 524, -2984, -520, 2669, -5862, 5026, 366, -791, -557, -1401, -1310, 2091, 1627, 4599, -6519, -904, 3232, -1003, -383, -2804, -1712, -3166, 2427, -3028, 4917, -477, -817, 557, 551, -6327, 207, -742, 694, -884, 1967, -417, -5418, -3536, -2751, 1366, 1851, 581, -1350, -789, -245, -326, 445, -3752, 561, 663, -439, -6528, 5187, 840, 2230, -1576, -4739, 3257, 232, -6745, -835, 5736, -3128, -865, 697, -3199, -403, 3750, -5474, 2725, -927, -726, -449, -3437, 734, 2293, 4025, 2001, -8635, -490, 2876, -34, -1424, 511, -1194, -727, 1606, -4234, 9281, -3841, -489, -490, -807, -3361, -677, 171, 794, 606, 3692, -986, -1302, -101, -2382, -5870, 1497, 905, 1615, -995, 1696, 833, 5106, -3416, 1331, -419, 1380, -4821, 11517, -356, 3491, 4075, -521, -4485, 194, -8366, -146, 2408, -1266, 192, 560, -1660, -5131, 3596, -6556, 2850, 358, -186, 227, -3422, 935, 5286, -2339, 5314, -6698, -963, -654, 956, -1101, -5102, -3650, 1169, 4133, -452, 8442, -456, 375, 198, -1207, 1290, -632, -371, -174, 980, 4888, -465, 3651, 1579, -64, -2048, 5623, -46, 1696, 1990, 4367, -130, 696, -1689, -266, 318, 2603, -6124, 11679, -136, 5569, 6371, -4326, -103, -827, -6992, 1055, -660, 105, -587, -873, 2, -11646, 3727, -10086, 4402, 655, 1026, -263, -2297, -1113, -1873, -3935, 481, -7195, -1118, -5039, 761, 527, -4324, 2337, 663, 7309, 370, 7849, 1698, -517, 703, -716, -595, 381, -5610, -313, 238, -163, -453, 3999, 3175, 3004, -3920, 4185, 901, -289, 3450, 2799, 827, 2145, -3626, 1240, -473, -2760, -3584, 13372, -683, 4308, 8155, -3892, 208, -76, -4523, -16, -1411, -154, -447, -932, 5204, -10919, 3117, -13466, 3297, 732, 494, -737, 916, 415, -301, -1222, 49, -8075, 384, -7514, 81, -270, 588, -2092, 2730, 7871, -3810, 6033, -1546, 437, 815, 871, 3170, -192, -4203, 670, 36, -2648, -1260, 301, 3820, 2406, -239, 2941, 279, 625, 5839, 2346, 854, 2906, -5448, -602, 38, -3340, -4107, 8261, -449, 3961, 4078, -3843, 65, 578, -4836, 730, 2220, -2286, 826, 404, 7287, -10643, 2778, -10668, 3444, -1237, -562, 574, 2397, -842, 891, -858, -1672, -7630, 892, -6485, -1090, -2558, -3890, 101, 2323, 4644, -454, 4801, 1314, 587, 1006, 1245, 2967, 1103, -4093, 166, 1284, -1913, 171, 436, 5005, 73, -978, 5366, 282, 1015, 2691, 3676, -14, -106, -4450, -258, -218, -3146, -4407, 2146, -955, 4137, 1557, -3858, 2600, -795, -4547, -441, 799, -1393, 912, 932, 7099, -8306, 4196, -5603, 3649, 414, -848, -48, 4094, -885, 759, -2008, -4050, -6167, -602, -6322, -386, -2990, -4904, 3435, 3679, 2228, -1126, 978, 691, -241, 434, -92, 1742, -643, -887, -217, 942, -3413, 288, -1512, 3567, -2634, 964, 5261, -861, 1798, 1238, 5035, 259, -3329, -1066, 151, -229, -2287, -5376, -1411, -869, 3474, 3714, -2598, 1265, -213, -4136, -856, -1549, -604, 202, 936, 5837, -4999, 2444, -4930, -2329, -215, -554, 886, 3828, 1062, 1391, -1740, -2646, -3725, 962, -3957, 369, -3727, -448, 1176, 2586, 166, -539, 667, 1292, 489, 210, -244, 3572, 1253, -5, 1374, 769, -2314, 314, -3177, 541, -3201, -2210, 5188, -176, 3074, -2687, 3099, 246, -1332, 1450, 240, 185, -453, -3567, -1279, 173, 1522, 3955, 325, 870, -154, -3062, -561, -3637, 220, 1042, -819, 4184, -2282, -338, -1791, -2370, 1049, -547, 72, 3598, -403, 193, -377, 95, -2939, 198, -797, -229, -6008, 3807, 1610, 4293, -704, 673, 31, 1460, 927, 1043, -526, 1798, -824, 1552, -188, -925, -1419, 1361, -1184, 1743, -729, -820, 1771, 690, 2017, -3664, 2605, 1040, -526, 1936, -622, 746, 803, -1661, -3033, 70, 1823, 2185, 2148, 1421, -905, -2173, -535, -2749, 2363, 44, 407, 2425, -2134, -5111, -2759, -1178, -436, 1061, -735, 830, 1281, -1931, 2215, -263, -1858, 457, 135, -290, -6376, 4626, 4524, 3948, -2760, 1247, -1076, 745, -231, 676, 500, 2041, -771, 2858, 887, -496, -1196, 619, 1783, 3038, -1086, -889, 1553, -389, 1996, -2881, 2506, 1267, -1114, 2148, 547, -863, 678, -1588, -3568, 949, 2496, 1332, 765, 582, -120, -1647, 760, -1732, 221, 62, 773, -944, 296, -2429, -4401, 406, 139, -142, 752, 1158, 600, -23, 902, -1845, -1683, 417, -159, 1169, -4137, 3427, 3307, 2741, -3352, 1510, -385, 707, 460, 373, 687, -31, -160, 56, 119, 1069, -64, -267, 713, 1721, 1000, 344, 331, 719, -54, -11, 573, 363, -609, 1566, -674, -461, 1200, 326, -1532, -641, -518, 1042, 2073, 1358, 1064, -535, -96, -933, -340, 584, 1147, -1876, 1181, -595, -2809, -88, 550, 732, 93, 1524, -239, 341, -29, 1147, -209, -701, -2088, 280, -942, 1610, 1789, 1659, -1573, 986, 1447, 1533, 68, 811, 1007, 1612, 452, -952, -803, 687, 1844, -184, -1156, 1033, 639, 294, -539, 216, 846, -253, 448, -478, 1070, 799, -608, 1076, 307, -16, -1842, 274, -745, -335, 985, 1877, 204, -276, 1330, -431, -720, -396, 974, -415, 1423, -1055, 645, -2026, -143, 1250, 922, 72, -413, 55, -880, -421, -56, -454, -519, -797, -467, 642, 1783, 61, -971, -111, -31, 618, 1132, -238, 242, -127, 1097, 98, -305, 9, -35, -278, -103, 1198, 228, -453, -1723, 673, -134, 66, -748, 185, 1055, 82, 1060, 1166, -179, -189, -1122, -359, 621, 1155, -558, 549, 655, -489, -15, -40, 1102, 384, 130, -183, -218, -927, 1497, -1003, 1297, -683, 27, 730, 409, -1104, 534, -188, 736, 424, 820, 1244, 162, 1797, 588, 293, -1663, 801, 526, 654, 655, 105, -117, -95, -589, -1140, 618, -219, -362, 786, -866, 1383, 1264, -643, -206, 553, -314, 425, -106, 1217, -209, 1147, -105, -558, -91, 621, -575, 1279, 982, 114, -84, 186, -300, -1023, -817, -213, 1234, -12, -834, -1067, 593, -357, 248, -1825, 486, -585, -86, 945, 981, -1277, -280, -425, 1116, -28, 549, -601, 934, 2741, 573, 983, -1312, 987, 582, -22, 829, 28, 961, -928, 688, 432, 1195, 481, -39, 1317, -1046, 545, 1420, -402, -1910, 997, 393, -157, -887, -313, 197, -8, 780, -147, 1033, 1224, -1555, 123, -1017, -395, -120, -110, 253, 479, -468, -1613, -249, 84, -392, -612, 1590, -1210, 1687, -1135, 57, 612, 1179, 784, 1235, -1169, -180, -198, 336, 732, -68, -352, -275, 1293, 2069, 1357, -708, -335, 1272, -596, -260, 1233, -460, 459, -65, -142, -636, 189, 91, 862, -996, 1348, -605, -993, -300, 948, 1372, 447, -578, -805, 1398, 263, 79, 1330, 263, 1442, -812, 916, -670, 1237, 1783, 1047, 643, 248, -277, 92, -622, 577, -53, -1182, 1010, -1393, -240, -1399, -393, -561, -125, 361, -720, -950, -1548, 336, 513, 1392, 1077, -412, -58, 1032, 1627, 982, -2030, -900, 491, 366, 1415, 1237, -728, -192, -575, -567, 1327, 921, -173, -608, -686, -49, 1155, 60, -1627, -737, 1171, 241, 240, 731, 838, -976, 1052, 966, 806, 586, -948, -437, -674, -1433, 1602, -1270, -881, -475, -465, 1605, 1355, 1210, -55, 946, 537, -1339, 128, -1488, -210, -102, 1421, -492, 605, 104, -1492, 843, 830, 315, -442, -233, 826, 1777, 307, 90, -970, -1250, 838, -2182, -518, 891, -491, 1304, 1312, 1473, 565, 1027, 537, -659, 156, 14, -313, 581, -3102, 679, 194, 250, -855, 237, 3256, -2161, -582, 432, 1046, 474, -536, -34, -1225, -1876, 3676, -601, -416, -193, 1263, 2138, 1046, 671, -59, 1050, 1424, -1421, -518, -3046, 166, 245, 1093, -1118, 1365, 1457, -665, 1601, 1865, -364, 426, 885, 249, 3313, 1102, 973, -581, -1620, -266, -1205, -626, -228, 387, 213, -656, 140, -974, -273, 1244, -599, 1347, -973, 507, 45, -2528, 950, -1225, -1349, -1479, -587, 2556, 701, 182, 40, 1423, 1605, -544, 937, -3000, -1356, 5590, -3671, -839, -368, -318, 265, -576, 1166, 965, 1792, -1434, -1732, 963, -2660, -434, -36, -580, -772, 508, 1937, -1196, 3043, 487, 539, -655, -117, -1992, 2185, 158, 1431, -2017, 328, 294, -1309, 900, 690, 1136, 4136, -705, 2054, -92, -149, 493, -787, 4262, -817, -2171, -137, -2581, -107, -2431, -1599, -2552, 419, 2693, 308, -682, 1052, 1608, 2735, -2945, 935, -2777, -3700, 5714, -7300, 393, 500, -407, 2590, -1139, -642, -760, 65, 1597, -1612, -2230, -2781, -584, 395, 181, -4045, -894, 2852, -868, 4242, 1442, 24, -2770, -493, -3535, 1848, -755, 2006, -149, -1015, 1370, -222, -781, -884, 956, 5132, 352, 629, 410, 1059, 1514, -58, 4146, -397, -3223, -975, -1222, -183, -3338, -1638, -1430, 784, 1351, 859, 871, 379, -137, 3756, -2294, -747, -2309, -1875, 4128, -9935, 489, -457, -281, 1132, -3108, 697, -536, 1145, 1063, -893, -3903, -1560, -428, 915, -108, -2506, 1100, 1216, -313, 4598, 2208, 1085, -3828, 242, -3365, 813, -2034, 1335, -583, -80, 629, 980, 781, 1024, 1294, 2829, -437, 813, 1038, 904, 2553, 1047, 8303, -34, -7272, -2674, -925, -88, -5027, -1721, -3145, -569, -857, 3703, -346, -619, 1738, 4354, -4282, 719, -4083, -1222, 3894, -10198, 84, 4010, 1052, -447, -4049, 508, 1087, 2344, 263, -2156, -4303, -93, 1186, -226, 135, 823, -168, -298, 453, 3542, 3390, -68, -3996, -20, -3860, 295, -5353, -754, 805, 2186, -1551, 4146, -331, 644, 74, 1679, -18, -2348, -406, 731, 851, -788, 7561, -1086, -6430, -2542, -2076, 415, -6186, -1935, -3079, 391, 387, 4659, 883, -300, 1656, 3726, -2918, -746, 748, -973, 4391, -10860, -646, 5637, -1206, -545, -6096, 4, -22, 2781, 1643, -1518, -3050, 568, 875, -737, 625, -2449, -198, 631, 2359, 5182, 2544, -690, -477, 829, -2410, -2957, -6781, -535, -326, 3448, -2107, 2831, 1158, -973, -1222, 2839, 229, -2206, 650, 32, -1028, -571, 7066, -2264, -7907, -2248, -2367, -878, -10096, -4782, -8579, -642, 2762, 2037, -548, 697, 1358, 162, -2372, -8, 4059, 1687, 1755, -4427, 1285, 4913, 509, 611, -8138, -360, -415, 3370, 3101, 788, -5784, 599, -212, 961, 36, -1484, -1019, 212, 5717, 10456, -1975, 1158, -912, 763, 1920, -4240, -7187, -3469, 4570, 1111, -1882, 1447, -279, -479, 302, 375, 241, -4011, -246, -653, -2800, 1030, 6654, -1303, -5033, 770, 77, -322, -7190, -8095, -8571, 552, 4194, 4899, 303, 1303, 4404, -2634, -2244, -100, 7902, -2636, 91, 6112, 461, 6695, -91, -138, -7139, -464, -185, -901, 2760, 1497, -4453, -167, -917, -327, 168, 1671, -175, 86, 10213, 8159, 1218, 920, 51, 919, 1620, -4502, -4339, -4523, 3284, 991, -4433, 1165, 1245, 35, -15, -1474, -279, -1317, 860, 99, -5348, 941, 4911, 3728, -5307, 2625, 3348, -183, -7741, -10125, -5878, -479, 2202, 2430, -957, 350, 3187, -1863, -1138, 1266, 3847, -2561, 805, 10189, -338, 8269, 173, -952, -6294, 181, 1139, -4650, 2180, 1457, -1667, 2648, 490, -801, 206, 8091, -1222, -1806, 3414, 6636, 2718, 511, -1446, 57, 714, -2755, -5611, -7491, 5838, 140, -6536, 2457, 175, 1028, -666, -3136, -1000, -3758, -754, 611, -6915, 591, 459, 5778, -6934, 1542, 5605, 337, -5493, -12022, -8430, 166, 2175, -4754, -581, 33, 7571, -899, 2068, -760, 3870, 518, 2204, 11297, -47, 6986, 686, 1543, -4728, -71, -779, -7839, 3854, -30, -3716, 5673, 179, 373, -321, 4699, 820, -3163, 7508, 7104, -1309, 600, -2226, -215, 881, -119, -7050, -9153, 5149, -3214, -5102, -3108, 153, 188, 764, -3762, 130, 1605, -88, -24, -9591, 16, -307, 13083, -5805, -1548, 4827, 440, -3713, -10759, -4581, -825, 678, -4397, 41, -127, 4888, -3465, 2829, 769, 6619, 1537, 180, 9741, 782, 2910, -264, 98, -5751, -434, 65, -8708, 4907, 732, -1992, 5845, -190, 1215, 846, -1153, -1245, -2905, 8639, 4634, -6519, -772, 2857, -69, -498, 3319, -1407, -7249, 7978, 260, -3793, -2262, 231, -1178, -113, -1879, -150, 2095, -620, 1262, -7181, -30, 1285, 13736, -833, -682, 1964, -525, 351, -4583, -242, -501, -800, -3725, 326, -193, 1783, -3639, 2670, 439, 5063, 621, -5055, 4151, 158, 1741, -1045, 318, -12009, -80, -426, -7572, 3826, 606, -7402, 4316, -559, 1202, -144, -7201, -395, 2376, 5400, -1256, -6392, -1089, 2291, -40, -519, 2750, 598, -5025, 13607, -4542, 1696, -2404, 846, 477, -697, 1504, 1082, -2970, 1371, -652, -12512, -592, 2302, 12182, -1830, -4042, 1217, 923, 3488, -2971, -5103, 909, 125, -1920, 899, 97, 4377, -1502, 7867, -559, 4794, 3026, -2280, -5366, -1183, 41, -769, -1518, -12285, -394, 198, -3756, 3926, 2439, -8802, 1598, 473, 114, 858, -9314, -1003, 535, 4129, -483, -3615, -915, 3271, 306, -2477, 2648, -3258, -533, 7605, -3515, 8421, -2675, 571, -1084, -796, 3189, 295, -1713, -780, 946, -9842, -678, 4845, 14892, -1428, 1365, 1260, -29, -4100, -1468, -5034, 535, 348, -1278, 231, 346, 4592, -1401, 13301, 6, 1493, 2984, -2447, -3873, -483, 5351, 216, -1838, -10866, 992, 1142, 4100, -2624, 1972, -8463, 2219, 924, -581, -116, -4381, 949, -5975, -3078, -851, -503, -1032, 3262, 327, 2090, 5128, -1588, -2021, 10435, -1638, 9079, -319, 183, -1336, 661, 4451, -1083, -1894, -177, 350, -1077, 701, 3620, 14752, -996, 202, 2350, 200, -8623, -5482, -8914, -400, 1928, -4268, 1293, -348, -2467, -5605, 17316, -773, 5568, 4525, -742, -1290, -705, 958, -272, 2858, -10153, -448, -641, 6121, -10707, 2307, -10109, 4455, 257, 217, -582, -3408, 469, -6578, -3700, 2611, -3664, 185, 3590, -1008, 2271, 282, 1166, 2862, 7401, -2804, 4258, -3165, -545, -1123, -192, 6417, 616, -1931, 1045, 232, -215, 177, 2340, 8653, -2200, 337, 7268, -1320, -6206, -1403, -4895, 822, -1697, -116, -268, -632, -1752, -5187, 12683, -474, 4129, 5549, 265, -927, 430, -571, -462, -559, -7804, -494, 264, 6047, -16487, 1502, -9488, 5630, -638, 258, 984, 3161, -1344, -1293, -3658, 814, -5908, -1273, -5867, -783, 2097, -6551, 3612, 4307, 4078, 706, -19, 1190, 289, -359, 353, 6622, -90, -2724, 1096, 691, -1993, -287, 3777, 9107, -1032, 834, 4293, -513, -4101, -381, -2301, 1084, -835, -3503, 229, 61, -472, -3061, 6196, -888, 4013, 2151, 674, 443, 703, -1525, -285, 3, -6602, -316, 582, 7171, -10930, 846, -5481, 3062, 966, 1310, -884, 1586, 602, -1181, -3353, 190, -6811, -268, -4212, 1109, -777, -5010, 4181, 3940, 3055, -2554, -1870, -338, -1133, -621, 1221, 6214, -608, 497, 236, -279, -516, 887, 958, 6275, -3338, 1737, 6192, -795, -1774, -443, -1516, -323, -127, -5558, -672, 972, -428, -1760, 5349, 331, 376, 1170, -272, 149, -236, 1068, 273, -3688, -2715, -535, -303, 7445, -6337, 460, -1440, -82, 417, -271, 1186, 1932, -765, -883, -1840, 2656, -3819, -961, -3193, -578, 1689, -517, 99, -244, 1540, -3057, -248, 381, 252, -536, -647, 6087, -519, -696, -339, 1070, -1384, 1306, -117, 2021, -3308, 52, 7625, 349, 1527, -2384, 1984, -438, -1607, -279, 558, -964, 206, -1922, 4617, 876, -1946, 2938, 84, -39, 437, -3064, 737, -5064, 1408, 957, 735, 6831, -4770, 134, -227, -2023, -678, -407, 883, 2883, -150, 2052, -1468, 3171, -2450, -881, -1055, -632, -2522, 4378, 4000, 1187, 1382, 1924, -3292, 696, -142, -874, -594, 1829, -554, 770, 920, -753, -4123, -284, 2103, 2619, -1369, 1233, 6989, 996, 1498, -2387, 2591, 79, -1088, 1842, 454, 115, -290, -4815, -1863, 286, 119, -329, 1345, 1141, 743, -2338, 512, -1949, 2071, -390, 296, 509, -3267, -1018, 1022, 368, 1015, 695, 1171, 4803, -294, 501, -2567, 64, -1387, -1219, -1531, 68, -5800, 1731, 6214, 3351, -3067, 4382, -3995, 1891, 781, -852, -732, 2737, 1248, 263, -422, -565, -2113, 896, 1684, 3075, -839, -539, 2996, 3, 3694, -3024, 1129, -738, 210, 1403, 879, 141, 674, -3234, -5790, 931, 1706, 961, 1429, 642, 608, -2026, 1336, -758, -306, 195, -477, -1014, -960, -2299, 839, 1205, -80, -518, 56, 2329, -668, -1835, 1170, -219, -1978, -255, 157, 497, -4924, -502, 5787, 2699, -1473, 2314, -1587, 1840, -453, -866, -832, 1648, 96, 374, 1187, -889, 1553, 545, 334, 486, -1121, -153, 890, -352, 1529, -397, 179, 663, -436, 1291, -177, 80, -476, -250, -3363, 1002, 1664, 1948, 1762, -191, 893, 930, -532, -672, 1193, 877, -870, -1770, 812, 429, -719, -165, 1058, 912, 612, 1726, -655, -300, 842, 1194, -310, -260, -2028, -72, -790, 207, 3067, 2027, -902, 1401, 199, 1509, -75, -61, 159, 324, 112, 428, 1348, 217, 1902, 350, -460, 1131, 927, -1517, -70, -108, 737, -62, 507, 326, 1445, -405, 56, 923, -491, 598, -1704, 617, 784, 63, 1179, 1287, 124, -842, 1062, -990, 725, 470, -620, -679, 544, -653, 894, -925, 164, 74, 280, 545, 1345, -31, -1036, 192, 282, -871, 1484, -678, -444, 1822, 1590, 1656, -1377, 722, -322, -460, 781, 465, -276, 677, 693, 700, 872, 784, 1186, 1360, 445, 1171, 1274, -14, -123, 332, 427, -1114, 608, 598, 361, -659, 855, -897, 816, 53, -1138, -571, -536, -198, 568, -247, 67, 496, 1141, 24, -825, 35, 939, 1133, 466, -76, -763, -1251, 791, 1161, 410, -390, 380, -246, -30, 159, -418, -429, 1835, -489, -92, 2915, 1927, -446, -1198, -1194, 56, 609, -718, -730, 463, -1125, -793, -723, 534, -447, 135, -791, -516, -744, -394, 679, 297, -802, -383, -1204, -572, 1118, -260, -534, -926, 618, 1433, -325, -830, -808, -730, -523, 571, 870, 883, -871, -471, -256, 1291, 431, 819, 326, 185, -1602, -20, -1740, 1165, 492, -847, 162, -526, -618, 626, 907, -294, -525, 1339, 588, -296, 1101, 883, 1217, -25, 381, 1722, 407, 234, 78, -410, 205, 1108, 1093, -167, -422, 62, -552, -1166, -294, -151, -478, -1678, -158, 174, -986, 248, -441, 1244, 1096, 1240, 1143, 1298, 929, 630, 1249, 459, 809, -108, -146, 1334, -868, -172, 447, -110, 359, 1300, 1212, 1214, -1302, -222, -1227, 569, 500, -92, 742, -912, 292, 609, -111, 24, -141, 1438, 413, 524, 1831, 2059, 974, -1162, -628, 42, 421, 748, 865, 506, -49, -229, -88, 44, 704, 397, 652, -538, 471, 1501, 88, -770, 1247, 1737, 113, -782, 173, 1002, 27, -488, 521, 979, 625, 319, 570, 339, -64, 1708, -2, 1202, -386, 531, 332, 191, 192, 1210, -1094, 1459, -587, 1263, -1170, 1171, 513, -338, -834, 78, -739, -22, 1290, 1809, 228, 1563, -124, -252, 2656, 1090, -261, -533, 195, 791, -833, -11, 1332, 798, -627, -674, 628, 20, 318, 187, -401, 91, 588, 257, 1549, -1916, 291, -766, -219, -438, 159, 748, -381, 283, 985, -161, 2290, 158, 699, -440, -1039, 2136, -746, 350, 1666, 1287, -83, 1102, 522, 28, 119, 768, -912, 2308, -3503, 1241, 286, -687, -1323, -247, 680, -502, 245, 1212, 209, 1188, 1101, 707, 1889, 846, -125, -1092, -1918, -955, -2763, 994, 737, 1266, 965, 777, 1042, -58, 330, 713, -199, 979, -658, 32, -1488, -2012, -375, 15, -173, -1755, 169, 3881, -2836, 575, 1113, 1867, 2369, -557, 635, -2087, -2574, 3147, -2340, 725, 1408, 1320, 2482, 1213, 1011, 468, 876, 1387, -1342, -1148, -2669, 1354, 481, 676, -180, 1255, 749, -2673, 1572, 1911, 677, -920, -640, -566, 2235, 147, 1216, -571, -2084, -8, -1730, -85, 286, 1028, 1717, 1314, 1202, -159, -227, 854, 551, 3189, -3427, -2948, -2814, 573, -877, -988, -679, -2204, 715, 4509, 1918, 1332, 912, 1077, 1809, -1357, -762, -1500, -1537, 5361, -4614, 178, -1919, 135, 585, 1621, -452, 1179, 316, -210, -2405, -1910, -2071, 1358, -722, 1120, 417, 796, 2851, -4877, 1307, 966, 1101, -4480, 151, -3270, 1564, -616, 1158, -459, 2655, 1173, 1744, 7, 281, -862, 2214, 48, -842, -735, 1349, 2445, -277, 5920, -1988, -4158, -3382, -86, -242, -3795, -3664, -3343, -793, 347, 2840, -608, -967, 1539, 2864, -412, -873, -3636, 783, 6017, -7246, 777, 1802, 1069, 2416, 709, 963, 187, 1646, -208, -1612, -2736, -1944, 1351, -73, 168, -2449, 294, 3449, -1328, 3446, -380, -354, -4711, -671, -2354, -1102, -2452, -162, 336, -492, -406, -1993, -340, -313, -926, 4477, 773, -1094, 862, 213, 1719, 808, 5491, -1199, -8337, -4088, -1934, -861, -3368, -5827, -4519, 496, -567, 3501, 542, 1188, 290, 1482, -2155, 885, -3050, 2654, 4767, -10913, -325, 229, -695, 156, -627, -137, 947, 2740, -1991, -3441, -2068, -2517, -719, 54, -197, -936, 711, 3901, 518, 3246, 3001, -602, -4079, 502, -4046, -1798, -4995, -706, 2083, 1027, -2402, 8, -192, 261, 104, 3489, -179, -3089, -333, 729, 4183, -171, 8646, 1267, -8012, -4976, -1078, 434, -2078, -4457, -2731, -550, -2433, 5824, 409, -512, 2293, 1648, -5346, 622, 40, 4149, -1386, -9917, 993, 2965, -213, 271, -2250, 441, -610, 2243, -2081, 2347, -5135, 1979, 1047, -382, 524, 293, 308, -2130, 1831, 3804, -129, -714, -2281, 709, -1748, -5367, -7528, -2254, 3398, 8673, 1104, 3640, -904, -913, 716, 2036, 668, -6386, -540, -483, 889, 1055, 7563, -1075, -8625, -1630, -3460, 199, -6526, -3865, -4006, 241, -1929, 4861, -825, -386, 64, 4124, 510, -865, 1566, 6048, 236, -3427, -731, 5657, -889, -297, -3750, 1026, 688, 4845, -824, -809, -1057, 872, 686, 892, -815, -1637, -830, -782, 5282, 5205, 4190, -318, -113, -179, -586, -1410, -6692, -4312, 3036, 5703, 464, 4618, -607, -473, 809, 2604, -987, -2477, 164, 489, -4134, 725, 8318, 646, -9919, -2359, -687, -652, -8425, -9323, -6642, 1312, -2461, 4872, -268, 304, 825, -1111, 1880, 243, 2370, 7167, 866, 5276, 1360, 5314, -333, -560, -6033, 647, -318, 4968, -5446, -1050, -1032, 1330, 829, 656, -463, 2347, -700, 3700, 9823, 7184, 992, 357, -64, 1070, 1335, -5929, -2788, -7251, 3935, 3390, -3447, 3470, 551, -670, -48, -3, 1070, 155, -343, 846, -2352, -324, 5885, 4910, -1885, -2899, 4559, 78, -3466, -12803, -5753, 1070, 2235, 3950, -483, -178, 438, 333, 1733, 397, 3889, 7466, 2589, 10265, 527, 4927, 211, -2046, -4301, 929, 510, 748, -1308, -1176, -4666, 2268, -710, 514, 1094, 1261, 921, -1917, 10024, 8616, 1842, 25, -3438, -650, -833, -6187, -3141, -3463, 6154, -4015, -4535, 45, -102, 1198, 666, -922, -933, -2365, 496, -93, -9417, -528, 4599, 11128, -6585, -1224, 4779, -427, -9327, -12180, -4763, -426, -3215, -3149, -784, -310, 2321, -345, 2897, -713, 4932, 5292, 2234, 10975, -742, 7050, 914, 356, -7804, -116, 323, -4796, 2580, 414, 2927, 803, 445, -815, 571, 5087, -391, -2802, 9709, 10283, -321, 973, -6361, -357, -1092, -3660, -1408, -8731, 5134, -4690, -3379, -1194, 540, 186, -523, 1619, 54, -2518, -489, 950, -8419, -787, 65, 8963, -7176, -580, 7008, 320, -5804, -7107, -3684, 895, -2247, -10527, 581, -238, 4941, 2851, 2060, -516, 2793, 1410, -1257, 6080, 1327, 6938, 286, -1629, -7538, -686, -98, -8026, 10697, 1623, 2581, 395, 524, -302, -330, 2940, 1118, -2029, 13324, 11512, -3116, 94, 588, -888, -1052, 1526, -4401, -12052, 8977, 814, -5471, -1177, -215, -1117, 1348, 1627, -241, 795, 814, -186, -9199, 901, -3255, 13067, -4210, -6426, 2243, 578, -2787, -5218, -2081, 914, 3850, -5723, 1021, 595, 2182, -1081, -2451, -573, 9648, 4878, -1775, 2609, -205, 606, -1097, 3815, -9937, 613, 878, -8137, 8658, 2479, 729, -3285, 39, 323, -843, -3140, -1045, -896, 17437, 5378, -6200, 163, 3720, -626, -7054, 4601, 1522, -4794, 12657, 196, -8339, -1965, -345, 448, 325, 2285, 205, 5230, 979, -202, -6914, 64, 2923, 19543, -3103, -475, -2635, 683, -4554, -760, -3438, -300, -1461, -777, -187, -52, 2170, -1316, -3546, 1147, 1722, 2609, -5069, -486, -330, 4750, -177, 4208, -15106, -56, 863, -7128, 14352, 6144, -2062, 1444, -432, -900, -412, -5915, -380, 1266, 6673, -1747, -2076, -1021, -1356, -195, 2061, 1512, 6016, -3741, 17207, 1942, -1590, 1896, 571, 567, 848, 642, 241, -4121, -340, -31, -10986, 865, 1656, 20389, -763, -1276, -2354, -1382, -3399, -55, -10419, -770, 69, 225, 39, -701, 2345, 1964, -1950, 407, 1033, 7344, 394, -5110, -593, 4325, -255, -1623, -14821, -759, 1025, 2004, 8864, 2658, 3415, -1173, 152, -26, 1316, -5897, 209, -2617, 2715, 1369, -2345, 430, 3863, -483, 1233, 5687, 3745, -633, 10426, -660, 4913, 851, 561, -1093, 668, -241, 520, 4933, 413, -679, -6186, 1024, 2887, 17099, -3183, 2031, 121, -250, -7073, 3809, -10013, -547, -1132, -1406, -463, 807, 806, 2687, 10068, 770, 180, 4718, 1931, -4639, 122, 6592, -267, -2216, -13838, -81, 1336, 12142, 64, -4303, -1132, 2089, 1113, -1254, 1380, -2272, -1055, -1479, -6283, 4658, 704, 380, 2391, -592, 4800, 8620, 4969, 3354, 4825, -1736, 9143, 3598, 1036, 836, -768, -1216, 669, 890, -732, -477, -2386, -875, 5567, 16508, -2146, 1996, 4471, 704, -10168, 3857, -11302, 487, 231, -2546, 1229, 759, -1450, -3520, 15259, -323, -1909, 8462, 1784, -2127, 882, 1659, -571, -2566, -6625, 1369, 510, 10816, -6778, -1849, -6613, 5468, -691, 1003, 861, 3789, -747, -6331, -7988, 5845, 47, 356, 200, -834, 8896, 938, 1460, 3460, 8057, 897, 8569, 2730, -850, -682, 521, 718, -1275, -3614, 1266, 106, 1964, 449, 2872, 10497, -599, 1258, 3739, 532, -10564, 593, -6593, -229, 132, 28, 198, 37, -278, -5093, 14200, -1226, -2659, 12968, -1995, -2079, 970, -2656, -14, 1698, -8963, 993, -562, 11825, -14011, -3636, -3907, 3275, 813, 205, 47, 309, -191, -4973, -6839, 5591, -2299, 509, -1619, -464, 4175, -4405, 2322, 6501, 3099, 296, 4790, 2919, -175, -511, 263, 7116, -646, -2875, 248, 754, 1905, 946, 1717, 9065, 410, -100, 2697, -481, -7969, 797, -4701, 655, -1569, -232, 159, 761, -1806, -1508, 6407, 170, -1706, 8059, 1140, -1265, 722, -1896, -638, -483, -9341, -822, 18, 10141, -10466, -3818, -11, -671, 1262, -221, 1282, -2136, -1225, -1563, -3915, 2932, -2930, 798, -929, 102, 4372, -3661, 5124, 4532, 1316, -1315, -137, 1053, -481, 927, 490, 8635, 939, 2346, 122, 815, -296, 566, -1601, 4790, 438, 1600, 4395, 596, -2685, -625, 683, -251, -3395, 1522, 315, -827, -2384, -202, 9903, 739, -1405, 1695, -1685, 749, -459, 122, 1102, -6561, -4552, 669, -398, 3947, -8616, 1775, 3586, -80, -826, 228, 1384, 966, -470, 256, -4317, 3378, -1626, 807, -3585, -589, 4129, -2806, 1812, -1087, 5059, 2715, -4350, 1311, -830, -1003, -1359, 5260, 1120, -1388, -145, -406, 1393, 1102, 926, 870, -1664, 113, 6603, -1119, -1049, 23, 1231, -388, -2050, 1358, -400, -121, -2286, -2843, 7641, 837, -2579, -1782, 1736, 557, -377, 1150, 322, -4767, -1, 1003, -425, 4649, -6684, 2762, 5378, -632, 315, 577, 760, 2283, 98, 325, -6265, 1988, -5135, -1233, -139, -697, 380, 62, 3196, -1368, 4673, 4309, -4808, -229, -1237, -234, 656, 5276, -300, 1679, 799, -87, -215, -764, 2105, -1004, -2485, 3805, 7082, 110, -498, -447, 874, 1270, -1660, -958, 1147, 373, -2177, -3935, 949, 1032, -4257, 313, 1754, 1077, -309, 397, 187, -3462, 1794, 1360, -743, -106, -4693, 1495, 6240, 1698, -577, 688, 730, 4566, 1156, -1024, -4854, 874, -2164, -1130, -2593, 918, -1619, 440, 7228, -1908, 1403, 3881, -6483, 1519, -693, 585, -682, 2015, 862, -158, -309, -705, -2612, -210, 1490, -927, -723, 859, 5353, -146, 2261, -2017, 1412, -402, -1594, 904, -681, 181, -4, -1667, -1488, 725, -1976, -148, 2505, 825, 1122, 1541, -674, -2721, 2036, -2, 299, -3060, -3224, -1168, 3358, 3069, 348, 209, 1314, 5340, 302, 94, -389, -1506, -1032, -1227, -2861, 690, -2674, -1245, 3242, -1352, -2666, 1553, -2940, 1603, -754, 835, 36, 1266, 323, -1924, 132, -10, -103, 1289, 324, -881, 1200, -1307, 4099, 1217, 2393, -1616, 1244, -636, -338, 2494, -527, 74, 432, -131, -2897, 557, 820, 1822, 1819, 1164, 101, -546, -238, -474, 1372, -313, 282, -2307, -494, -1500, 723, 338, 624, 496, -807, 2651, 506, 221, 377, -955, -1920, 864, -1241, -729, -786, -56, 2091, 1044, -929, 734, -1392, 902, 516, 801, -881, 486, 1043, -938, -369, 1282, -1343, -843, -1043, -1320, 1204, -162, 227, 22, 489, -1485, 768, 235, 1050, 842, 977, 171, 57, 382, -2486, 89, 847, 1402, 1258, 971, 1, -1711, 589, -80, 574, -486, -552, -424, 1500, -2295, 885, -979, 811, -693, -44, 1608, 460, -65, 413, -995, -95, 1219, 1668, 989, -815, 646, 2186, 894, -1643, 610, 755, -856, -210, 547, -43, -398, 772, 892, -339, -791, 230, 861, -1372, 817, 1631, -394, -922, 1119, 921, -906, -527, -856, -16, 296, -993, -675, -281, 242, 480, 569, 850, 1031, -17, 42, -48, 800, -670, 639, 639, 344, 1107, -13, 1434, -2043, 549, -1374, -519, 278, -882, 1111, 317, -788, -713, -1256, 274, 460, 1813, -385, 66, 2151, 1933, -240, -1128, -987, 264, 315, 334, -114, 449, -512, -429, 29, -182, 1248, -1187, -41, -561, -24, 1416, 70, -508, -197, 368, 2, -626, 831, 530, -334, 237, 1193, -679, 1637, -159, 796, 146, 246, -319, 1669, -253, -794, 302, -657, -219, -336, 172, 514, 1218, -1649, 954, -1060, 1024, -68, 1271, -920, 603, 949, 159, 162, 66, 921, 1288, 178, -361, 847, 1454, 664, -735, -473, -481, 130, -527, -517, 476, -537, -174, -551, -607, -346, 843, 1070, 403, -403, -269, 342, -986, -713, 1362, 12, -371, 820, -849, 443, 32, 1200, 1234, 1731, -87, -280, -60, 372, 1362, 216, -144, 187, 212, -1185, 1210, 1373, 202, 793, 1009, -450, 1768, -924, 522, 307, -631, -79, 1143, 54, 10, -1097, 49, -281, 927, 15, 392, 1398, 1761, -463, -1820, -1146, 938, 493, 1280, 157, -481, -93, -795, 1031, 1036, -295, -1027, -908, -364, -276, 1004, 532, -1600, -371, -284, -697, -383, -555, 703, -80, -360, 1062, -276, 775, -296, 225, -692, -168, 295, 1352, 526, 1231, -252, 396, 1509, 186, 1017, -997, -260, -1038, 1339, -1139, -762, 930, -601, -315, -450, 17, -360, -576, 280, 1165, 1801, 958, -653, 802, 1255, -35, -1341, -1157, 606, -281, 89, -967, 644, 1264, 88, 199, 1026, -897, 520, 289, 1166, 896, -1625, -198, -901, -336, 426, -457, -533, 1251, 816, 227, 728, 864, 854, 1298, -770, -52, -2560, 804, 1025, -257, 357, 2104, 181, -495, 1886, -242, -801, 1707, 641, -1194, 956, -2167, -174, 1092, 870, 263, -890, 783, -1221, 1147, 2510, 982, 787, -275, 311, 2999, 167, 798, -1549, -341, -245, -1970, 340, -228, 1318, 1641, 496, 824, -489, 670, 742, 418, 2163, -1459, -454, 287, -3001, 24, -1834, -999, -1913, 310, 3611, -1821, -505, -182, 2167, 2950, -673, -808, -3155, -1772, 1763, -2392, 246, 1938, 1, 1149, 2142, -396, 406, 77, 2028, -1616, -75, -3176, -545, -405, 84, 1106, 556, 2914, -2520, 224, 5015, 145, -372, 192, -750, 2432, -1360, -20, -743, -2756, 1116, -1489, 187, 490, 375, 3062, -351, -1336, 1259, -929, 2047, -719, 5070, -2343, -4899, -1582, -2557, -663, -2653, -2741, -226, 646, 2865, 2702, 580, -426, 1010, 2208, -1448, -300, -3311, -995, 2071, -5577, 420, -870, -471, 48, 3701, 679, 911, 7, 7, -2519, 566, -3063, 1229, 48, 656, 1755, 420, 2108, -3799, 604, 2879, -307, -4078, 280, -2693, 2150, -1801, 199, -1703, 1185, 918, 1449, 1255, 780, -133, 3969, -229, -1872, 1171, 0, 4222, 1265, 6776, -746, -8357, 747, -1675, 1243, -1591, -2267, -2520, -545, -711, 6887, -848, -518, 206, 2106, 877, 451, -1708, 152, -25, -7479, -684, 2062, -872, -910, 293, 1411, 544, 308, -1165, -2590, -504, -603, 642, 401, -745, 2046, 77, 3663, -3255, -1311, 3027, -532, -1865, -859, -2290, -152, -3163, -478, 1313, 2629, -158, -217, 261, -732, 780, 2424, 1358, -2901, 426, 1268, 3815, 955, 6363, -493, -10674, 109, -3809, -935, -1296, -3186, -2298, -419, -3053, 793, -1073, 381, 34, 788, 642, -716, -3358, 1050, -750, -10952, 857, 3884, 268, 474, -468, 734, -172, 2149, -2252, -1869, -2089, -1720, -879, 921, 64, 3611, 1149, 3308, 95, 215, 5522, 1028, 179, 354, -1673, -2101, -5939, -4015, 859, 4533, -1609, -948, 579, -894, 576, 2858, -522, -6889, 247, -493, 4599, -652, 4077, 526, -10021, 2180, -5199, 31, -1692, -1600, -3095, 905, -3077, 4624, 1219, 980, 3138, 3450, -813, 534, 1340, 5299, -6242, -6389, -835, 5618, -350, -1632, -4088, 428, 143, 2342, -1258, -2094, -1838, 2256, 1063, 305, -645, 684, -866, -4168, 4163, 1947, 4656, -259, 1501, 499, 1229, -1303, -8609, -8131, 3316, 7673, 232, 2306, 1125, -227, -240, 2178, 615, -6260, 723, -747, -212, 1067, 5452, -1519, -8675, 694, -838, -725, -2956, -3199, -1235, 1232, -5146, 6947, 1141, 866, 3346, 4751, -645, 1096, -1903, 5116, -2964, -158, 296, 5868, -495, -2212, -1689, 444, -923, 2241, -4245, -2730, -948, 490, 195, 38, 794, -3363, -759, -1400, 6739, 2891, 4105, 514, 2136, 65, 3898, -2453, -6372, -6337, 4858, 6234, -495, 4367, 684, -459, 583, 1719, 819, -6608, 249, 1000, -1915, 1064, 4670, 3085, -7830, -1277, 1401, 654, -1092, -7221, -3947, 610, -5292, 3641, -421, -727, 1493, 2857, -693, 870, 2291, 4647, -2180, 3808, -760, 7277, 783, -243, -3344, -92, -838, 1772, 2089, 1743, -5297, -2197, 1346, -120, 358, -2034, -607, 2147, 8962, 3367, 6232, 612, 1276, -902, 3139, -6260, -3685, -3849, 6193, 1259, -450, 62, -79, -261, -1270, 4614, 408, -1871, 690, -755, -604, 1086, 6157, 5586, -2275, -3072, 8647, 392, -1431, -5604, -1320, -641, -8643, 4656, 483, 862, -734, 3327, -1564, -48, 3087, 7082, -1600, 11003, 266, 7577, -181, -4053, -7768, 525, 347, -1170, -2747, -1389, 703, -4, -266, -533, 884, 4687, 311, 2204, 5519, 8081, 360, 788, -1796, 800, -742, -4527, -3457, -851, 3718, -5947, -2596, 1751, -58, 372, -810, 9090, -121, -6617, 831, -413, -2359, 895, 3389, 1623, -2666, 654, 5638, 932, -3538, -1751, -1023, 304, -10080, -10718, -225, 671, -1148, 1136, -4719, 48, 1593, 10315, -2308, 8048, 239, 6538, -306, 203, -7634, 225, 268, -444, 2236, -103, 4791, -718, 1142, -945, -691, 8694, 84, 2736, 9695, 13332, -3436, 1232, -6602, 800, 3425, -5367, 1562, -10141, 6998, -7584, -3454, 1759, 598, -1130, 1224, 9591, 173, -2793, 562, -984, -981, 660, -235, 3392, 1708, -195, 2074, -553, -3266, 1216, 5902, -1276, -5361, -19723, -618, -145, 201, -3228, -7501, -338, -910, 4770, -3083, 4968, -428, 3692, -568, 2319, -10090, 1001, 598, -7722, 7897, 2916, 4472, -3852, -696, -554, -1003, 3770, -709, -247, 5691, 11328, 152, -581, -5030, 481, 2138, -1917, 3486, -8167, 7377, -2720, -4839, -1233, -369, -541, 341, 11751, -482, -1179, 1307, -239, 1242, -705, 84, 5159, -2546, 3406, -1948, 628, -821, 501, 203, -1287, -2531, -8197, -270, -1226, -874, 576, -7420, 412, -2108, 8473, -4098, 308, 509, 6582, -623, 2115, -12326, -361, 807, -7215, 13007, 3991, 5364, -9369, -272, -661, -425, -4882, 618, -606, 9760, 16110, 642, 649, 995, 175, 5939, 4024, 4063, -6519, 7854, 4885, -10400, -5690, 489, 368, 976, 5501, -20, -2050, -886, 234, 4595, 63, 3944, 4140, -2542, 1910, -5204, -118, -2841, 31, -6545, 273, -3008, -1398, 334, 474, 1323, 2119, -10165, -255, -5956, 6895, -2974, -7369, 475, 5649, -299, 5956, -8528, 205, 269, 2633, 12405, 2237, 7784, -6312, -380, -399, -225, -6258, 1005, 99, 6402, 11313, -2073, -1408, -484, 540, 6214, 2926, 2070, -2153, 5126, 5798, -4694, -1534, -1055, 962, -520, -1577, 1040, 2880, 189, 949, 3661, -967, 2291, 4012, -3120, 2, -4603, 1185, -3594, 8156, -10185, 282, -1979, -3145, -844, 968, -1288, 4114, -4158, -1341, -6524, 5926, -1495, -9405, 937, 6662, 710, 4806, -9856, 233, 528, 12892, 13930, 4016, 10210, 1851, 509, -838, -363, -5867, 505, -2485, -4998, 8968, -3415, -1056, -6024, -1014, 8219, -2146, 3689, -2842, 11895, 3007, 5464, 2424, -634, -465, 650, -6937, -568, 1431, -610, -142, 1418, 239, 1376, 2905, -4239, 601, -1431, 414, -1501, 8853, -9679, -443, -2489, -2914, 690, 189, 897, -838, 5964, 470, -4945, 317, 2718, -6784, -1029, -294, 256, 1344, -5921, -546, -782, 14755, 5251, 1279, 8809, 1341, 1201, -405, 1435, -454, -16, -157, -9197, 11915, -3671, -1010, -358, -23, 7596, -296, 2301, 4564, 10066, -2334, 11671, 1815, -957, 929, 63, -4312, -684, 2057, 369, -504, 2169, -310, 7191, 3407, -2609, 7713, 2320, 1227, -4485, 2779, -11734, 228, -6083, -3115, 1027, -12, 1345, -2562, 11172, -51, -9158, 3945, -126, -3456, 882, 2105, -431, 2398, -3690, 871, -883, 12690, -2219, -4560, 7428, 7540, 517, 881, 725, -21, 197, -2181, -8751, 9777, -3960, -210, -5431, -634, 5680, -2300, 4485, 2862, 4344, -1646, 11420, -2188, -515, -714, -548, 3359, 392, 257, -126, -964, 602, 760, 2776, 1734, 466, 1914, 2934, -572, -4268, 4370, -5239, -863, -4186, -4452, -332, 519, 599, -3033, 13909, 206, -6341, 5065, -2622, -6236, 647, -4727, -308, 1894, -4996, -837, -685, 9181, -7099, -1945, 2450, 5494, 588, -724, -936, 483, 825, 292, -9574, 5813, -2928, 670, -117, -546, 3334, -8905, 676, 3418, 7036, -1335, 7774, -3608, 58, -890, -194, 4413, -478, -1835, 41, -654, 2754, 841, 2905, 1331, 93, 39, 3667, 881, -1655, 3292, -1458, -1186, -721, -1111, -506, 300, -860, -1515, 8264, 814, -5758, 5634, -2374, -1945, -419, -2245, 312, 168, -758, 437, -650, 4516, -10526, -2154, 3860, 1691, -302, 687, -521, -785, 455, 2201, -7838, 4116, -896, -237, -3188, -366, 5494, -8134, 4455, 3104, 2977, 1833, -1717, -2757, -724, -994, -77, 6851, -102, 1447, 530, -51, 1772, -616, 1616, -2017, 237, 323, 4847, -1342, -605, 343, -247, 568, 1043, -609, 106, 286, 746, -3753, 9656, 519, -3966, 1614, -2442, 1086, -842, -1496, -226, 105, 1087, -192, -477, 1381, -6997, -370, 7702, 3860, 916, 461, -540, -819, -931, -2112, -5406, 2840, -2184, -1109, -4656, 1170, 910, -7893, 1882, -2207, 3352, 3116, -6949, -116, 897, -294, -655, 4399, 549, 3675, 618, -368, 1925, -56, 2304, -3787, -2892, -1022, 2085, 1197, -2053, -2315, -3534, 156, -355, -2298, -421, 17, 815, -4590, 7428, -1226, -5434, -68, 1607, -3897, 936, 3165, 272, 2539, 3022, 1216, 710, 4023, -8397, 3659, 8370, 3221, 717, -303, -201, 630, 1267, 583, -5716, 4787, -2863, 745, -1967, 24, 2088, -3632, 936, -3582, 5377, 1692, -7189, -3076, 929, 1229, 1339, 5908, -59, 1178, 1039, 110, 1677, 915, -193, -4603, -5137, -579, 5868, 1060, -55, -3090, -4207, 1314, -3786, -492, 114, 368, -3922, -4209, 3263, -376, -5196, 1676, 1936, -2541, -749, 3726, 375, -3436, 3040, 339, -662, -1484, -7253, 3139, 7691, 4180, -448, -87, -93, 5452, -82, -1618, -3176, 1121, -1813, -647, -3299, -779, 4132, -5439, 3527, -3749, 4383, 4769, -8448, -4874, 946, 446, -885, 3579, -484, -1184, -634, -128, -443, -456, 1762, -3539, -2283, 999, 7860, -994, 1261, -2415, -2029, 1097, -4308, 3522, -520, 1069, -73, -4524, -3302, 189, -2061, 1304, 2338, 65, -779, 854, 214, -3059, -48, 1195, 1189, -5556, -5277, 845, 7758, 6649, 651, 584, 192, 5958, -432, -4633, -1992, 651, -1197, 23, -4216, -109, 56, -3624, 7604, -1136, 450, 5516, -4504, 539, -1189, -169, -142, 838, 1388, -1484, -578, 386, 1168, -170, 1132, -265, 78, -1363, 3298, -903, 1994, -1332, 292, -540, -1521, 2074, -421, -603, 2164, -2723, -3171, 1155, 368, 1001, 1736, 58, 1336, -1806, 476, -1834, 530, -308, 895, -4772, -963, 56, 6462, 2803, 876, -566, 396, 2851, 344, -2414, 1035, -151, -1372, 15, -1067, -257, -1597, -390, 4844, 1540, -89, 2547, -1264, 306, 253, 97, -79, 1591, -241, 50, 755, 426, 843, 626, 891, 1463, -139, -506, 11, 1363, 1704, -661, 574, 29, -62, 412, -582, -230, -586, -250, -917, 708, 1105, -387, 1407, 267, 328, -1449, -249, 115, -1280, -665, 683, -974, 766, 537, 1169, -200, 555, 496, 1098, 1888, -773, -306, -629, 830, 220, 252, -350, 68, -531, -380, 1893, 96, -1082, 1895, -154, 84, -718, -353, 1300, -382, 173, -699, 192, -594, 931, 547, -1560, 564, 553, -805, -1685, -773, -528, -326, 1242, -950, 55, 1145, 1233, 1158, 1365, 1356, -662, 734, -516, 576, 543, 859, 94, -675, -183, -431, -90, 897, 691, -1126, 781, -635, 777, -361, -147, 335, -169, -318, -501, 194, 67, 205, 315, 199, 578, -879, -618, 1223, 1987, 1079, -1459, -891, 1061, -278, 1155, 460, 975, -968, -54, 799, 735, 47, -504, 586, 515, 15, 384, -980, -595, -59, -249, -1251, 1332, -691, 912, -738, -524, 628, -195, 759, 36, 631, -42, -843, 46, -408, 595, 632, 67, 153, -663, -291, -292, -1005, 364, -66, 1785, -499, 1263, -182, -564, -582, 128, 13, -671, 580, 94, 494, 1162, -764, -471, 2349, 2020, 1440, -1601, 660, -67, -1303, 527, 1347, 84, -662, 1233, 36, 973, 801, 392, -810, -628, -100, 781, -641, -1639, 1049, 734, -1397, 565, -285, -144, -578, 689, 1339, 828, 616, 239, 584, -82, 711, 1710, 1285, 424, 390, 538, -1543, 696, 1270, -784, -97, -40, -685, 972, -2451, -841, 496, 1216, -268, 88, 1052, 98, -938, -340, -176, 2073, 176, 386, 925, 524, -5, -115, 294, -228, -1452, -210, 1012, -689, 892, -537, 412, 905, -511, 336, 1081, -1428, 858, 306, 280, -791, 1319, -229, 413, 336, 653, 1091, -276, 14, -719, 611, 1356, -176, 982, -403, -322, 1882, 644, -188, 647, -64, -890, 1742, 548, -807, -530, -749, -899, 279, -1758, 302, -11, 1404, 977, 381, -20, -1211, 867, 2121, -438, 1608, 675, 756, 987, 341, -364, -1264, 2, 1261, -1134, 504, 754, -921, 1866, -624, -1016, 871, -589, -478, -567, 1809, -152, -63, 576, -1281, 1341, -1272, -749, -2170, 337, -480, 115, -764, 264, 137, 2579, -1166, 1255, -2573, 242, 128, -1160, 387, 1306, -871, 1531, 1331, -66, 379, 336, 1047, -1314, 1931, -3348, -939, -21, 337, 1081, 1326, 1243, -1233, 650, 434, 145, 1071, 1221, 627, 1854, -373, -726, -734, -1615, -198, -2116, 1360, -229, -556, 2700, 1335, 1006, 1098, -303, 1940, 486, 3417, -185, -2675, 1047, -2382, 567, -706, -1290, -2082, -883, 3826, -251, 421, -633, 407, 1198, -656, 119, -2275, -814, 1655, -2515, -954, 1348, -367, 3497, 2549, 395, 1246, 1445, 41, -2714, 1369, -4874, -554, -752, 340, 863, -663, 2017, -2947, -645, 2543, -279, -2800, 786, -1482, -94, -885, -1046, -463, -3088, -134, -1739, -629, -231, 512, 3858, -640, -1062, -248, 594, 4297, -290, 4730, -366, -6789, 667, -2434, 96, -3368, -3360, -1203, 1028, 1192, 1628, -555, 296, 132, 352, -1588, 198, -696, -213, -293, -6636, -399, 3912, 1213, -984, 3519, -429, 843, -252, 2566, -1606, -2239, -1447, 569, -275, 957, 2810, 1245, 1090, -5785, 479, 2249, 359, -2927, 1022, -2524, -742, -2873, -1942, -191, 916, 432, -1324, -571, -651, 946, 2573, 492, -1872, 602, 985, 6723, 72, 6492, 357, -7202, 2658, -3376, 136, -4683, -2632, -2392, -916, -3431, 2155, 716, 94, 810, 902, 2437, 508, -750, 2087, -2517, -5359, -937, 5143, -348, 1499, -1775, -405, 703, -1975, 152, -1082, -1066, 1421, -556, 747, 267, 3677, 206, 1117, 736, -3063, 1678, 1158, -3049, -525, -2242, -2961, -4141, -6037, -151, 4226, -2326, -1384, -931, -64, -952, 3892, 1286, -2294, -404, -658, 7734, -386, 4456, -1470, -7182, 2395, -4657, 252, 181, -2205, -1711, 1376, -6154, 2107, 609, -437, 4396, -130, 1151, -529, 526, 3280, -296, -7716, 529, 2546, -111, 1429, -1763, 1104, 527, 1068, -806, -3016, -1286, 371, -267, 102, -926, 4260, -744, -233, 5497, -2477, 713, 690, 935, 95, -2856, -1912, -5677, -5403, 625, 6205, -2724, -79, 421, -210, -29, 3094, -737, -3817, 315, 450, 6792, 490, 3858, 642, -7739, 2192, -7411, 960, -4264, -6138, -1135, 1098, -7748, 6060, 499, 382, 4374, 1729, -1804, -260, 3982, 3501, -3279, -4039, -638, 2798, 913, 948, 1617, 60, -1285, 300, -1339, -4961, -283, 456, 767, 932, -388, 1613, 998, 1220, 8230, -4292, 3925, 182, 2778, 624, -1877, -3418, -8218, -6793, 2806, 8191, -3749, 4669, 43, -16, 6, 3453, -474, -2603, 652, -271, 7486, -168, 2896, 1257, -4287, 3314, -2505, 787, -3444, -4668, -1121, 1120, -13022, 7328, 952, 252, 2577, 1662, -467, -317, -2117, 5089, -5202, 1519, -510, 3370, -514, -2981, -1834, -593, -1248, 1905, -1904, -2335, 686, 374, 265, 13, 957, 1204, 642, 265, 6165, -2763, -200, 723, 1629, 242, 3534, -5384, -8288, -8998, -45, 7698, -1047, 4990, 537, 1072, 760, 3064, -402, -3242, 343, -19, 6365, -496, 452, 1819, 994, -411, 78, 833, -6131, -2289, -6570, -708, -14156, 6511, 1339, 1150, 1814, 6091, -2599, 1193, 1329, 5035, -8233, 4821, 913, 6230, 493, -1719, -5022, -281, 334, 205, 3266, 1565, -1496, -1091, 946, -183, -1013, 165, 408, -254, 11004, -6858, 622, 571, 1599, 332, 507, -5973, -5957, -5607, 2075, 1206, -2446, 2006, 234, 909, 661, 6072, 88, -1621, 677, -219, 6230, 70, 2344, 1282, -2706, 1503, 8217, -934, -4135, -4424, -3870, -1046, -20187, 6547, 190, 16, -2518, 4015, -6731, -858, 4019, 9228, -6620, 10970, 1207, 7647, 124, -1899, 2238, -991, -1035, -5263, -5553, -3828, 3726, -653, -828, 228, -895, 4258, -643, -861, 9741, -6185, -1643, 1328, -2524, -253, -5117, -6141, -327, -6048, 671, -5600, -1627, 9440, -428, 522, -383, 11265, 649, -1875, -761, -104, 5617, -110, 655, -2099, 3054, -1890, 5252, -737, -3351, -364, -3171, 630, -13552, -13895, 829, 358, 246, 3466, -5880, -6, 838, 13448, -1110, 6931, -1, 7530, -787, -3684, 3801, -690, 758, -8705, -708, -4601, 6059, -3967, 1045, -1089, 188, 6510, 402, -3470, 1765, 4821, -743, -392, -9920, 286, 584, 2135, 2882, -7188, -1987, -11650, -4285, 1159, 555, 98, 740, 13584, 673, -1140, 237, -480, 13095, 829, -3815, -7556, 7018, 185, 3667, 295, -411, 2743, -2235, -653, -8080, -22898, -223, 295, 553, -3364, -5722, -397, -8214, 4908, -133, 2301, -487, 5654, -73, 1470, -1561, -394, -288, -15835, 1608, 2025, 7566, -6200, -284, 742, 77, 3486, -539, -4829, 3667, 3397, 1031, 813, -7823, -923, 2394, 614, 9903, -9116, -3826, -9291, -5096, -11481, -1320, -370, 83, 10370, 854, -84, 1210, 711, 18752, 544, 979, -8084, 4610, 5748, -5203, 175, -1266, 2954, -2993, -160, -3444, -14573, -181, -793, -2515, -1649, -11679, 610, -8976, 2760, -459, -4291, -808, 6921, 585, 7131, -1506, 715, 475, -17295, 4148, 2830, 8456, -8850, -229, 437, 832, -1654, 1376, -2083, 2008, 7447, 1665, -47, 296, 765, 9130, 6366, 6411, -12218, -8286, -3463, -10687, -14264, 833, 197, 991, -1531, -914, -361, 344, -168, 18473, 414, 428, -12477, -1680, 3013, -9929, -483, -3030, 379, -6325, 674, -3568, -2422, 910, -566, 2144, 3053, -11473, -324, -5189, -1536, -3225, -10396, 648, 4067, -230, 7888, -6560, 969, 527, 2626, 11081, 3803, 12530, -9026, 768, 989, -23, -7105, 541, -2220, -1256, 9675, -4062, 252, 3426, -728, 5558, 9298, -2959, -5923, -7639, 2061, -1940, -9065, 575, -1289, -628, -4485, -35, 3054, -139, -684, 14954, -271, 2134, -17501, -4472, -202, -4791, 616, 792, 3059, -11525, -1115, 925, -1818, 1120, -954, 65, 4179, -9301, -269, -6250, -7583, -2205, -11420, 1245, 2391, -240, 6967, -1849, -227, 906, 18836, 12092, 4068, 12263, -874, -311, -1056, 1305, -4869, -187, -2750, -12400, 12549, -5108, -352, 456, -831, 763, 148, -3830, -271, -1522, 3855, 10401, -2006, 399, 218, 